FANN_FLO_2.1
num_layers=4
learning_rate=0.700000
connection_rate=1.000000
network_type=0
learning_momentum=0.000000
training_algorithm=2
train_error_function=1
train_stop_function=0
cascade_output_change_fraction=0.010000
quickprop_decay=-0.000100
quickprop_mu=1.750000
rprop_increase_factor=1.200000
rprop_decrease_factor=0.500000
rprop_delta_min=0.000000
rprop_delta_max=50.000000
rprop_delta_zero=0.100000
cascade_output_stagnation_epochs=12
cascade_candidate_change_fraction=0.010000
cascade_candidate_stagnation_epochs=12
cascade_max_out_epochs=150
cascade_min_out_epochs=50
cascade_max_cand_epochs=150
cascade_min_cand_epochs=50
cascade_num_candidate_groups=2
bit_fail_limit=3.49999994039535520000e-001
cascade_candidate_limit=1.00000000000000000000e+003
cascade_weight_multiplier=4.00000005960464480000e-001
cascade_activation_functions_count=10
cascade_activation_functions=3 5 7 8 10 11 14 15 16 17 
cascade_activation_steepnesses_count=4
cascade_activation_steepnesses=2.50000000000000000000e-001 5.00000000000000000000e-001 7.50000000000000000000e-001 1.00000000000000000000e+000 
layer_sizes=4 6 6 2 
scale_included=1
scale_mean_in=1000.451233 1.045002 4.500000 
scale_deviation_in=0.287235 0.028723 2.872281 
scale_new_min_in=-1.000000 -1.000000 -1.000000 
scale_factor_in=1.000000 1.000000 1.000000 
scale_mean_out=1000.494019 
scale_deviation_out=0.812039 
scale_new_min_out=-1.000000 
scale_factor_out=1.000000 
neurons (num_inputs, activation_function, activation_steepness)=(0, 0, 0.00000000000000000000e+000) (0, 0, 0.00000000000000000000e+000) (0, 0, 0.00000000000000000000e+000) (0, 0, 0.00000000000000000000e+000) (4, 5, 5.00000000000000000000e-001) (4, 5, 5.00000000000000000000e-001) (4, 5, 5.00000000000000000000e-001) (4, 5, 5.00000000000000000000e-001) (4, 5, 5.00000000000000000000e-001) (0, 5, 0.00000000000000000000e+000) (6, 5, 5.00000000000000000000e-001) (6, 5, 5.00000000000000000000e-001) (6, 5, 5.00000000000000000000e-001) (6, 5, 5.00000000000000000000e-001) (6, 5, 5.00000000000000000000e-001) (0, 5, 0.00000000000000000000e+000) (6, 0, 5.00000000000000000000e-001) (0, 0, 0.00000000000000000000e+000) 
connections (connected_to_neuron, weight)=(0, -4.03069369494915010000e-002) (1, 5.68623933941125870000e-003) (2, 2.72842264175415040000e+000) (3, -1.22077189385890960000e-001) (0, -1.49890318512916560000e-001) (1, 5.26943150907754900000e-003) (2, 1.29070150852203370000e+000) (3, 5.14629781246185300000e-001) (0, 8.47101956605911250000e-002) (1, 6.97947666049003600000e-003) (2, -5.72727322578430180000e-001) (3, 4.34807479381561280000e-001) (0, 4.21125560998916630000e-001) (1, 5.40280267596244810000e-002) (2, 8.43452334403991700000e-001) (3, 1.03285349905490880000e-001) (0, 7.30303943157196040000e-001) (1, 6.23642653226852420000e-002) (2, 1.09712682664394380000e-001) (3, 3.45694690942764280000e-001) (4, -9.10394549369812010000e-001) (5, 1.52898943424224850000e+000) (6, 1.51944196224212650000e+000) (7, -1.33641457557678220000e+000) (8, -6.77557513117790220000e-002) (9, 4.56973284482955930000e-001) (4, 3.34018158912658690000e+000) (5, -1.40313708782196040000e+000) (6, 7.08630990982055660000e+000) (7, -2.26604628562927250000e+000) (8, 6.20849579572677610000e-002) (9, -6.42451286315917970000e-001) (4, -9.81778204441070560000e-001) (5, 1.56604754924774170000e+000) (6, 1.31076908111572270000e+000) (7, -1.44183015823364260000e+000) (8, -8.55487212538719180000e-002) (9, 4.26383286714553830000e-001) (4, 1.54566752910614010000e+000) (5, -9.27400708198547360000e-001) (6, 4.15342241525650020000e-001) (7, 1.49467480182647710000e+000) (8, 7.23597168922424320000e-001) (9, 6.42988085746765140000e-001) (4, -1.02294874191284180000e+000) (5, 1.68321084976196290000e+000) (6, 1.59807729721069340000e+000) (7, -1.39904510974884030000e+000) (8, -2.81723421066999440000e-002) (9, 4.55653786659240720000e-001) (10, -9.93305742740631100000e-001) (11, 8.14453125000000000000e+000) (12, -2.28812646865844730000e+000) (13, 2.38224554061889650000e+000) (14, -1.33725225925445560000e+000) (15, 1.44101560115814210000e-001) 
