FANN_FLO_2.1
num_layers=3
learning_rate=0.700000
connection_rate=1.000000
network_type=0
learning_momentum=0.400000
training_algorithm=0
train_error_function=1
train_stop_function=0
cascade_output_change_fraction=0.010000
quickprop_decay=-0.000100
quickprop_mu=1.750000
rprop_increase_factor=1.200000
rprop_decrease_factor=0.500000
rprop_delta_min=0.000000
rprop_delta_max=50.000000
rprop_delta_zero=0.100000
cascade_output_stagnation_epochs=12
cascade_candidate_change_fraction=0.010000
cascade_candidate_stagnation_epochs=12
cascade_max_out_epochs=150
cascade_min_out_epochs=50
cascade_max_cand_epochs=150
cascade_min_cand_epochs=50
cascade_num_candidate_groups=2
bit_fail_limit=3.49999994039535520000e-001
cascade_candidate_limit=1.00000000000000000000e+003
cascade_weight_multiplier=4.00000005960464480000e-001
cascade_activation_functions_count=10
cascade_activation_functions=3 5 7 8 10 11 14 15 16 17 
cascade_activation_steepnesses_count=4
cascade_activation_steepnesses=2.50000000000000000000e-001 5.00000000000000000000e-001 7.50000000000000000000e-001 1.00000000000000000000e+000 
layer_sizes=49 97 4 
scale_included=0
neurons (num_inputs, activation_function, activation_steepness)=(0, 0, 0.00000000000000000000e+000) (0, 0, 0.00000000000000000000e+000) (0, 0, 0.00000000000000000000e+000) (0, 0, 0.00000000000000000000e+000) (0, 0, 0.00000000000000000000e+000) (0, 0, 0.00000000000000000000e+000) (0, 0, 0.00000000000000000000e+000) (0, 0, 0.00000000000000000000e+000) (0, 0, 0.00000000000000000000e+000) (0, 0, 0.00000000000000000000e+000) (0, 0, 0.00000000000000000000e+000) (0, 0, 0.00000000000000000000e+000) (0, 0, 0.00000000000000000000e+000) (0, 0, 0.00000000000000000000e+000) (0, 0, 0.00000000000000000000e+000) (0, 0, 0.00000000000000000000e+000) (0, 0, 0.00000000000000000000e+000) (0, 0, 0.00000000000000000000e+000) (0, 0, 0.00000000000000000000e+000) (0, 0, 0.00000000000000000000e+000) (0, 0, 0.00000000000000000000e+000) (0, 0, 0.00000000000000000000e+000) (0, 0, 0.00000000000000000000e+000) (0, 0, 0.00000000000000000000e+000) (0, 0, 0.00000000000000000000e+000) (0, 0, 0.00000000000000000000e+000) (0, 0, 0.00000000000000000000e+000) (0, 0, 0.00000000000000000000e+000) (0, 0, 0.00000000000000000000e+000) (0, 0, 0.00000000000000000000e+000) (0, 0, 0.00000000000000000000e+000) (0, 0, 0.00000000000000000000e+000) (0, 0, 0.00000000000000000000e+000) (0, 0, 0.00000000000000000000e+000) (0, 0, 0.00000000000000000000e+000) (0, 0, 0.00000000000000000000e+000) (0, 0, 0.00000000000000000000e+000) (0, 0, 0.00000000000000000000e+000) (0, 0, 0.00000000000000000000e+000) (0, 0, 0.00000000000000000000e+000) (0, 0, 0.00000000000000000000e+000) (0, 0, 0.00000000000000000000e+000) (0, 0, 0.00000000000000000000e+000) (0, 0, 0.00000000000000000000e+000) (0, 0, 0.00000000000000000000e+000) (0, 0, 0.00000000000000000000e+000) (0, 0, 0.00000000000000000000e+000) (0, 0, 0.00000000000000000000e+000) (0, 0, 0.00000000000000000000e+000) (49, 4, 5.00000000000000000000e-001) (49, 4, 5.00000000000000000000e-001) (49, 4, 5.00000000000000000000e-001) (49, 4, 5.00000000000000000000e-001) (49, 4, 5.00000000000000000000e-001) (49, 4, 5.00000000000000000000e-001) (49, 4, 5.00000000000000000000e-001) (49, 4, 5.00000000000000000000e-001) (49, 4, 5.00000000000000000000e-001) (49, 4, 5.00000000000000000000e-001) (49, 4, 5.00000000000000000000e-001) (49, 4, 5.00000000000000000000e-001) (49, 4, 5.00000000000000000000e-001) (49, 4, 5.00000000000000000000e-001) (49, 4, 5.00000000000000000000e-001) (49, 4, 5.00000000000000000000e-001) (49, 4, 5.00000000000000000000e-001) (49, 4, 5.00000000000000000000e-001) (49, 4, 5.00000000000000000000e-001) (49, 4, 5.00000000000000000000e-001) (49, 4, 5.00000000000000000000e-001) (49, 4, 5.00000000000000000000e-001) (49, 4, 5.00000000000000000000e-001) (49, 4, 5.00000000000000000000e-001) (49, 4, 5.00000000000000000000e-001) (49, 4, 5.00000000000000000000e-001) (49, 4, 5.00000000000000000000e-001) (49, 4, 5.00000000000000000000e-001) (49, 4, 5.00000000000000000000e-001) (49, 4, 5.00000000000000000000e-001) (49, 4, 5.00000000000000000000e-001) (49, 4, 5.00000000000000000000e-001) (49, 4, 5.00000000000000000000e-001) (49, 4, 5.00000000000000000000e-001) (49, 4, 5.00000000000000000000e-001) (49, 4, 5.00000000000000000000e-001) (49, 4, 5.00000000000000000000e-001) (49, 4, 5.00000000000000000000e-001) (49, 4, 5.00000000000000000000e-001) (49, 4, 5.00000000000000000000e-001) (49, 4, 5.00000000000000000000e-001) (49, 4, 5.00000000000000000000e-001) (49, 4, 5.00000000000000000000e-001) (49, 4, 5.00000000000000000000e-001) (49, 4, 5.00000000000000000000e-001) (49, 4, 5.00000000000000000000e-001) (49, 4, 5.00000000000000000000e-001) (49, 4, 5.00000000000000000000e-001) (49, 4, 5.00000000000000000000e-001) (49, 4, 5.00000000000000000000e-001) (49, 4, 5.00000000000000000000e-001) (49, 4, 5.00000000000000000000e-001) (49, 4, 5.00000000000000000000e-001) (49, 4, 5.00000000000000000000e-001) (49, 4, 5.00000000000000000000e-001) (49, 4, 5.00000000000000000000e-001) (49, 4, 5.00000000000000000000e-001) (49, 4, 5.00000000000000000000e-001) (49, 4, 5.00000000000000000000e-001) (49, 4, 5.00000000000000000000e-001) (49, 4, 5.00000000000000000000e-001) (49, 4, 5.00000000000000000000e-001) (49, 4, 5.00000000000000000000e-001) (49, 4, 5.00000000000000000000e-001) (49, 4, 5.00000000000000000000e-001) (49, 4, 5.00000000000000000000e-001) (49, 4, 5.00000000000000000000e-001) (49, 4, 5.00000000000000000000e-001) (49, 4, 5.00000000000000000000e-001) (49, 4, 5.00000000000000000000e-001) (49, 4, 5.00000000000000000000e-001) (49, 4, 5.00000000000000000000e-001) (49, 4, 5.00000000000000000000e-001) (49, 4, 5.00000000000000000000e-001) (49, 4, 5.00000000000000000000e-001) (49, 4, 5.00000000000000000000e-001) (49, 4, 5.00000000000000000000e-001) (49, 4, 5.00000000000000000000e-001) (49, 4, 5.00000000000000000000e-001) (49, 4, 5.00000000000000000000e-001) (49, 4, 5.00000000000000000000e-001) (49, 4, 5.00000000000000000000e-001) (49, 4, 5.00000000000000000000e-001) (49, 4, 5.00000000000000000000e-001) (49, 4, 5.00000000000000000000e-001) (49, 4, 5.00000000000000000000e-001) (49, 4, 5.00000000000000000000e-001) (49, 4, 5.00000000000000000000e-001) (49, 4, 5.00000000000000000000e-001) (49, 4, 5.00000000000000000000e-001) (49, 4, 5.00000000000000000000e-001) (49, 4, 5.00000000000000000000e-001) (49, 4, 5.00000000000000000000e-001) (49, 4, 5.00000000000000000000e-001) (49, 4, 5.00000000000000000000e-001) (49, 4, 5.00000000000000000000e-001) (0, 0, 0.00000000000000000000e+000) (97, 4, 5.00000000000000000000e-001) (97, 4, 5.00000000000000000000e-001) (97, 4, 5.00000000000000000000e-001) (0, 0, 0.00000000000000000000e+000) 
connections (connected_to_neuron, weight)=(0, 1.15143559873104100000e-001) (1, -1.98503226041793820000e-001) (2, -1.03927597403526310000e-001) (3, 1.12520910799503330000e-001) (4, -2.30666756629943850000e-001) (5, -3.02596539258956910000e-001) (6, -1.80372521281242370000e-001) (7, -1.14071875810623170000e-001) (8, 8.79870876669883730000e-002) (9, -4.05584454536437990000e-001) (10, -1.66008979082107540000e-001) (11, -2.72742867469787600000e-001) (12, -5.36340214312076570000e-002) (13, -1.79562289267778400000e-002) (14, 2.01490283012390140000e-001) (15, -3.03014010190963750000e-001) (16, -2.61070907115936280000e-001) (17, -5.13084411621093750000e-001) (18, -1.67132332921028140000e-001) (19, -4.01895940303802490000e-001) (20, -3.06740462779998780000e-001) (21, -1.93541049957275390000e-001) (22, -2.27740928530693050000e-001) (23, -1.46984323859214780000e-001) (24, -4.50851589441299440000e-001) (25, -5.84530174732208250000e-001) (26, -3.53260427713394170000e-001) (27, -2.75194495916366580000e-001) (28, -3.65911960601806640000e-001) (29, -4.06581342220306400000e-001) (30, -1.93044871091842650000e-001) (31, -1.05655930936336520000e-001) (32, -2.37078472971916200000e-001) (33, -6.05324685573577880000e-001) (34, -5.22711753845214840000e-001) (35, -6.00242078304290770000e-001) (36, -3.72816652059555050000e-001) (37, -3.44949424266815190000e-001) (38, -2.62478917837142940000e-001) (39, -5.03207407891750340000e-002) (40, 5.27415499091148380000e-002) (41, -4.20478224754333500000e-001) (42, -2.18088403344154360000e-001) (43, -7.24927604198455810000e-001) (44, -4.68506783246994020000e-001) (45, -4.13617223501205440000e-001) (46, -6.65349811315536500000e-002) (47, 6.62585545796900990000e-004) (48, -1.12588047981262210000e+000) (0, 6.33435770869255070000e-002) (1, 1.42364293336868290000e-001) (2, 2.90550708770751950000e-001) (3, 1.93178653717041020000e-001) (4, -7.99857974052429200000e-001) (5, -1.16488242149353030000e+000) (6, -1.03027975559234620000e+000) (7, -1.07198752462863920000e-001) (8, 7.53594994544982910000e-001) (9, -2.09984347224235530000e-001) (10, -1.84723868966102600000e-001) (11, -3.17957937717437740000e-001) (12, -1.04653418064117430000e+000) (13, -5.41513442993164060000e-001) (14, -1.79666176438331600000e-001) (15, 1.07366904616355900000e-001) (16, -4.71450686454772950000e-001) (17, -4.48967456817626950000e-001) (18, -7.39599764347076420000e-001) (19, -3.88130873441696170000e-001) (20, -1.02061390876770020000e+000) (21, -2.34756305813789370000e-001) (22, -1.04462094604969020000e-001) (23, -8.35483312606811520000e-001) (24, -2.72214770317077640000e-001) (25, -7.09160625934600830000e-001) (26, -9.81892228126525880000e-001) (27, -9.93385791778564450000e-001) (28, -5.47489464282989500000e-001) (29, -7.57072448730468750000e-001) (30, -8.60347151756286620000e-001) (31, -1.76908969879150390000e-001) (32, -1.04713201522827150000e+000) (33, -9.03305351734161380000e-001) (34, -1.15542042255401610000e+000) (35, -1.67861342430114750000e+000) (36, -6.15189850330352780000e-001) (37, -2.77896970510482790000e-001) (38, 6.45844995975494380000e-001) (39, -3.70474755764007570000e-001) (40, -3.49981069564819340000e-001) (41, -9.68621790409088130000e-001) (42, -1.42998829483985900000e-001) (43, -2.27435851097106930000e+000) (44, -3.28808367252349850000e-001) (45, -2.99385637044906620000e-001) (46, 7.00257480144500730000e-001) (47, 1.75338238477706910000e-001) (48, 4.89071384072303770000e-002) (0, 2.75494102388620380000e-002) (1, -1.43356695771217350000e-001) (2, -1.61400273442268370000e-001) (3, 6.52807056903839110000e-002) (4, -2.83050328493118290000e-001) (5, -1.55509054660797120000e-001) (6, -1.74200981855392460000e-001) (7, -1.89577534794807430000e-001) (8, -3.58352921903133390000e-002) (9, -4.03870284557342530000e-001) (10, -2.31087803840637210000e-001) (11, -2.29602336883544920000e-001) (12, -5.17617985606193540000e-002) (13, 4.60826680064201350000e-002) (14, 1.57397508621215820000e-001) (15, -1.87446504831314090000e-001) (16, -3.42979401350021360000e-001) (17, -6.53793454170227050000e-001) (18, -3.65835279226303100000e-001) (19, -3.16673636436462400000e-001) (20, -3.23840588331222530000e-001) (21, -2.83888012170791630000e-001) (22, -2.50970661640167240000e-001) (23, 1.05350809171795850000e-002) (24, -4.07299339771270750000e-001) (25, -4.37088012695312500000e-001) (26, -5.51278531551361080000e-001) (27, -5.78476667404174800000e-001) (28, -1.92859515547752380000e-001) (29, -3.99195641279220580000e-001) (30, -2.15809747576713560000e-001) (31, -2.81619578599929810000e-001) (32, -2.93379276990890500000e-001) (33, -6.78488254547119140000e-001) (34, -4.71012115478515630000e-001) (35, -7.35608220100402830000e-001) (36, -4.06721442937850950000e-001) (37, -2.60603219270706180000e-001) (38, -3.55426222085952760000e-001) (39, -4.20481488108634950000e-002) (40, -2.77890991419553760000e-002) (41, -4.58852708339691160000e-001) (42, -1.68736651539802550000e-001) (43, -7.54321098327636720000e-001) (44, -5.09842455387115480000e-001) (45, -3.63047182559967040000e-001) (46, -9.99502390623092650000e-002) (47, -5.27198659256100650000e-003) (48, -1.14608681201934810000e+000) (0, -2.88236737251281740000e-001) (1, -6.42606019973754880000e-002) (2, 2.23662257194519040000e-001) (3, 7.41752609610557560000e-002) (4, 3.68052393198013310000e-001) (5, 4.29452164098620410000e-003) (6, -2.74168401956558230000e-001) (7, -2.27093277499079700000e-003) (8, -3.00359249114990230000e-001) (9, 2.80432701110839840000e-001) (10, 2.01089024543762210000e-001) (11, 1.69607281684875490000e-001) (12, 1.42127990722656250000e-001) (13, -4.29305821657180790000e-001) (14, -5.71205854415893550000e-001) (15, 2.31244023889303210000e-002) (16, -6.57569020986557010000e-002) (17, 3.92198234796524050000e-001) (18, 1.70747209340333940000e-002) (19, 3.09903472661972050000e-001) (20, 4.87614311277866360000e-002) (21, -1.92063838243484500000e-001) (22, 1.96233972907066350000e-001) (23, -1.24327823519706730000e-001) (24, 3.08892041444778440000e-001) (25, -1.07892222702503200000e-001) (26, -1.52763938531279560000e-002) (27, 1.15019045770168300000e-002) (28, -4.56049293279647830000e-001) (29, -1.02442912757396700000e-001) (30, -1.05580128729343410000e-001) (31, 3.51996682584285740000e-002) (32, 7.08017721772193910000e-002) (33, 1.38523042201995850000e-001) (34, 9.61841344833374020000e-002) (35, -1.21697165071964260000e-001) (36, -3.29172551631927490000e-001) (37, -1.99919879436492920000e-001) (38, 2.14208006858825680000e-001) (39, -2.41360738873481750000e-001) (40, 1.27846077084541320000e-001) (41, -3.84427234530448910000e-002) (42, -2.59447425603866580000e-001) (43, -2.97874897718429570000e-001) (44, -1.91606640815734860000e-001) (45, -4.07960027456283570000e-001) (46, -2.35144451260566710000e-001) (47, -3.34119856357574460000e-001) (48, -1.69710600376129150000e+000) (0, -5.54527901113033290000e-002) (1, -1.58479779958724980000e-001) (2, -1.42318382859230040000e-001) (3, -1.79676264524459840000e-001) (4, -3.98714125156402590000e-001) (5, -2.97985434532165530000e-001) (6, -1.23765230178833010000e-001) (7, 6.98192641139030460000e-002) (8, 7.86776095628738400000e-002) (9, -3.50555002689361570000e-001) (10, -3.03435593843460080000e-001) (11, -3.08448672294616700000e-001) (12, -2.88176536560058590000e-001) (13, -8.16777646541595460000e-002) (14, -7.73012861609458920000e-002) (15, 1.30126267671585080000e-001) (16, -3.17898392677307130000e-001) (17, -3.32163751125335690000e-001) (18, -3.63862723112106320000e-001) (19, -4.20076638460159300000e-001) (20, -3.93185377120971680000e-001) (21, -4.68120694160461430000e-001) (22, -3.04714024066925050000e-001) (23, -5.57554364204406740000e-001) (24, -2.73997426033020020000e-001) (25, -3.99642378091812130000e-001) (26, -4.53265994787216190000e-001) (27, -4.68810677528381350000e-001) (28, -5.29192864894866940000e-001) (29, -5.14752745628356930000e-001) (30, -6.32008552551269530000e-001) (31, -5.82283437252044680000e-001) (32, 3.55214276351034640000e-003) (33, -4.56768155097961430000e-001) (34, -6.52774572372436520000e-001) (35, -8.73695194721221920000e-001) (36, -5.38074314594268800000e-001) (37, -4.44484651088714600000e-001) (38, -4.03027415275573730000e-001) (39, -9.15953740477561950000e-002) (40, 2.10351616144180300000e-001) (41, -3.29974561929702760000e-001) (42, -9.16340202093124390000e-002) (43, -1.06009471416473390000e+000) (44, -6.67182326316833500000e-001) (45, -3.61925661563873290000e-001) (46, -6.03017918765544890000e-002) (47, 7.44562670588493350000e-002) (48, -6.17882549762725830000e-001) (0, -1.11794911324977870000e-001) (1, -2.11137533187866210000e-002) (2, -1.84870377182960510000e-001) (3, -2.27856874465942380000e-001) (4, -4.02320921421051030000e-001) (5, -1.47242262959480290000e-001) (6, -2.09011763334274290000e-001) (7, -1.89835384488105770000e-001) (8, 1.80637627840042110000e-001) (9, 1.06185488402843480000e-001) (10, 8.46395790576934810000e-002) (11, 2.85869427025318150000e-002) (12, -4.55274224281311040000e-001) (13, -3.12234133481979370000e-001) (14, -1.33393466472625730000e-001) (15, -2.68822669982910160000e-001) (16, 2.66164153814315800000e-001) (17, 2.02573657035827640000e-001) (18, -9.30664539337158200000e-002) (19, -7.82936140894889830000e-002) (20, -2.34851419925689700000e-001) (21, -1.74698472023010250000e-001) (22, -1.08692772686481480000e-001) (23, -1.94801092147827150000e-001) (24, 1.34424209594726560000e-001) (25, -3.98897416889667510000e-002) (26, 1.30252853035926820000e-001) (27, 3.02533525973558430000e-002) (28, 1.39802535995841030000e-002) (29, -3.60725134611129760000e-001) (30, 4.53834742074832320000e-004) (31, -7.32033774256706240000e-002) (32, -3.65855932235717770000e-001) (33, 5.89833892881870270000e-002) (34, -4.85641025006771090000e-002) (35, -1.06843136250972750000e-001) (36, -1.60478010773658750000e-001) (37, -6.70054554939270020000e-002) (38, -2.08252668380737300000e-001) (39, -9.78833809494972230000e-002) (40, -2.74341821670532230000e-001) (41, -1.32984966039657590000e-001) (42, -1.40113666653633120000e-001) (43, 4.57847528159618380000e-002) (44, -1.38051271438598630000e-001) (45, 1.70834288001060490000e-001) (46, -7.82560482621192930000e-002) (47, -1.71759292483329770000e-001) (48, -1.65779256820678710000e+000) (0, 6.07122294604778290000e-003) (1, -2.18761950731277470000e-001) (2, -2.98240095376968380000e-001) (3, -2.64308989048004150000e-001) (4, -4.26800519227981570000e-001) (5, -4.24168482422828670000e-002) (6, -1.54123961925506590000e-001) (7, -7.08270594477653500000e-002) (8, 7.16865584254264830000e-002) (9, -2.56544947624206540000e-001) (10, -2.53503620624542240000e-001) (11, -1.92306876182556150000e-001) (12, -3.26544612646102910000e-001) (13, -1.47708505392074580000e-001) (14, -7.39261582493782040000e-002) (15, -3.05480812676250930000e-003) (16, -1.46746143698692320000e-001) (17, -1.46129339933395390000e-001) (18, -2.88048535585403440000e-001) (19, -4.81853276491165160000e-001) (20, -4.61702197790145870000e-001) (21, -4.11222308874130250000e-001) (22, -2.61523723602294920000e-001) (23, -4.04043704271316530000e-001) (24, 1.23493067920207980000e-001) (25, -1.97643071413040160000e-001) (26, -1.26482352614402770000e-001) (27, -4.35456275939941410000e-001) (28, -3.19766968488693240000e-001) (29, -4.17297631502151490000e-001) (30, -4.67488050460815430000e-001) (31, -6.06075704097747800000e-001) (32, -2.48277969658374790000e-002) (33, -3.67192417383193970000e-001) (34, -3.40157538652420040000e-001) (35, -4.99834239482879640000e-001) (36, -5.92219829559326170000e-001) (37, -4.26663726568222050000e-001) (38, -5.00743091106414790000e-001) (39, -6.66966438293457030000e-002) (40, -7.10561405867338180000e-003) (41, -2.79109805822372440000e-001) (42, 9.56024136394262310000e-003) (43, -4.08694893121719360000e-001) (44, -5.01641333103179930000e-001) (45, -1.19637168943881990000e-001) (46, -1.25860989093780520000e-001) (47, -8.55277180671691890000e-002) (48, -1.20973932743072510000e+000) (0, -2.07735449075698850000e-001) (1, -1.43000394105911250000e-001) (2, 5.05416616797447200000e-002) (3, 6.45043924450874330000e-002) (4, -1.45003482699394230000e-001) (5, 3.71722760610282420000e-003) (6, -1.37824192643165590000e-001) (7, -1.00727111101150510000e-001) (8, -3.39016228914260860000e-001) (9, -5.74780553579330440000e-002) (10, 7.80853778123855590000e-002) (11, 9.96335316449403760000e-003) (12, -3.38228106498718260000e-001) (13, 9.43496301770210270000e-002) (14, -1.25771507620811460000e-001) (15, -1.99260011315345760000e-001) (16, 5.99404759705066680000e-002) (17, -7.86335468292236330000e-002) (18, 4.56610918045043950000e-001) (19, 1.45865753293037410000e-001) (20, -1.79962307214736940000e-001) (21, -1.39590620994567870000e-001) (22, 7.12302476167678830000e-002) (23, 3.93233329057693480000e-001) (24, -6.24975748360157010000e-002) (25, 7.32752755284309390000e-002) (26, 2.70113140344619750000e-001) (27, -8.38608071208000180000e-002) (28, -3.89651060104370120000e-001) (29, 3.30979675054550170000e-001) (30, 6.69894039630889890000e-001) (31, 5.32422542572021480000e-001) (32, 3.19696187973022460000e-001) (33, 4.05310422182083130000e-001) (34, 6.07534110546112060000e-001) (35, 4.32187974452972410000e-001) (36, -3.28984521329402920000e-002) (37, 4.06151741743087770000e-001) (38, 3.57532083988189700000e-001) (39, 2.48221114277839660000e-001) (40, 2.47786745429039000000e-001) (41, 3.62365037202835080000e-001) (42, 1.22247204184532170000e-001) (43, 5.19625306129455570000e-001) (44, -1.36611536145210270000e-001) (45, -1.47146694362163540000e-002) (46, -1.07108727097511290000e-001) (47, 3.86098384857177730000e-001) (48, -1.79330837726593020000e+000) (0, -4.88441176712512970000e-002) (1, -1.85598954558372500000e-001) (2, -1.72156736254692080000e-001) (3, -1.30707055330276490000e-001) (4, -3.67838829755783080000e-001) (5, -2.06045061349868770000e-001) (6, -4.35717180371284480000e-002) (7, 1.44481807947158810000e-001) (8, -1.50088235735893250000e-001) (9, -2.71193861961364750000e-001) (10, -1.88375875353813170000e-001) (11, -7.29444772005081180000e-002) (12, -4.59144145250320430000e-001) (13, -4.16180416941642760000e-002) (14, -1.17422297596931460000e-001) (15, 1.10483638942241670000e-001) (16, -3.03594499826431270000e-001) (17, -2.68597930669784550000e-001) (18, -1.68269738554954530000e-001) (19, -2.54757016897201540000e-001) (20, -2.75041222572326660000e-001) (21, -3.23848336935043330000e-001) (22, -2.60529994964599610000e-001) (23, -4.24537152051925660000e-001) (24, -2.82923668622970580000e-001) (25, -2.63099163770675660000e-001) (26, -4.23552393913269040000e-001) (27, -4.40845876932144170000e-001) (28, -4.54382508993148800000e-001) (29, -3.16153973340988160000e-001) (30, -4.36878025531768800000e-001) (31, -2.43839949369430540000e-001) (32, 1.63499593734741210000e-001) (33, -4.36139762401580810000e-001) (34, -3.74070376157760620000e-001) (35, -5.49030661582946780000e-001) (36, -2.64281421899795530000e-001) (37, -3.53201895952224730000e-001) (38, -1.24436512589454650000e-001) (39, -5.08110746741294860000e-002) (40, 2.29583173990249630000e-001) (41, -1.23432673513889310000e-001) (42, -1.87537595629692080000e-002) (43, -7.12586700916290280000e-001) (44, -4.47830408811569210000e-001) (45, -3.46745640039443970000e-001) (46, -1.14205241203308110000e-001) (47, -1.54670655727386470000e-001) (48, -1.12114083766937260000e+000) (0, -1.60775676369667050000e-001) (1, -5.01474626362323760000e-002) (2, -2.75987058877944950000e-001) (3, -1.37576758861541750000e-001) (4, -3.26873809099197390000e-001) (5, -2.31965482234954830000e-001) (6, -1.14946626126766200000e-001) (7, -4.98756691813468930000e-002) (8, 5.47533221542835240000e-002) (9, -3.02194952964782710000e-001) (10, -2.47561097145080570000e-001) (11, -1.81420385837554930000e-001) (12, -2.69207596778869630000e-001) (13, -2.57265809923410420000e-002) (14, 7.25413784384727480000e-002) (15, 2.04593360424041750000e-001) (16, -2.62768179178237920000e-001) (17, -2.14359804987907410000e-001) (18, -2.85629421472549440000e-001) (19, -4.41571205854415890000e-001) (20, -3.78716647624969480000e-001) (21, -3.87722581624984740000e-001) (22, -3.56612175703048710000e-001) (23, -5.44338464736938480000e-001) (24, -1.09237506985664370000e-001) (25, -3.13314646482467650000e-001) (26, -3.42124819755554200000e-001) (27, -4.07355844974517820000e-001) (28, -3.54460656642913820000e-001) (29, -3.85719060897827150000e-001) (30, -5.11874437332153320000e-001) (31, -4.53508555889129640000e-001) (32, 6.75925910472869870000e-002) (33, -5.00907778739929200000e-001) (34, -5.14794588088989260000e-001) (35, -6.09716773033142090000e-001) (36, -4.19228196144104000000e-001) (37, -4.91037100553512570000e-001) (38, -3.32666575908660890000e-001) (39, -6.58232197165489200000e-002) (40, 1.91323935985565190000e-001) (41, -9.06618535518646240000e-002) (42, -7.04043433070182800000e-002) (43, -8.54160130023956300000e-001) (44, -5.96481382846832280000e-001) (45, -3.99735599756240840000e-001) (46, -2.12135296314954760000e-002) (47, 2.34166309237480160000e-002) (48, -9.66560661792755130000e-001) (0, -9.74656641483306880000e-002) (1, -1.71729326248168950000e-001) (2, -2.12482526898384090000e-001) (3, -2.64791518449783330000e-001) (4, -2.04395756125450130000e-001) (5, -4.63848747313022610000e-003) (6, 1.24746467918157580000e-002) (7, -2.56264030933380130000e-001) (8, 3.59495473094284530000e-003) (9, -4.23151820898056030000e-001) (10, -3.87527167797088620000e-001) (11, -2.98786610364913940000e-001) (12, -1.98740676045417790000e-001) (13, 6.14885129034519200000e-002) (14, 2.13647499680519100000e-001) (15, -1.10019087791442870000e-001) (16, -1.03173032402992250000e-001) (17, -3.96765083074569700000e-001) (18, -3.43754887580871580000e-001) (19, -5.36583244800567630000e-001) (20, -5.05420923233032230000e-001) (21, -3.38055014610290530000e-001) (22, -2.76071190834045410000e-001) (23, -1.06464900076389310000e-001) (24, -4.64250370860099790000e-002) (25, -3.31174045801162720000e-001) (26, -1.25837221741676330000e-001) (27, -5.46503722667694090000e-001) (28, -3.78453344106674190000e-001) (29, -5.23304402828216550000e-001) (30, -2.30102747678756710000e-001) (31, -3.21778625249862670000e-001) (32, -1.27172291278839110000e-001) (33, -4.58272486925125120000e-001) (34, -2.67499595880508420000e-001) (35, -4.85301405191421510000e-001) (36, -3.30345422029495240000e-001) (37, -3.11794430017471310000e-001) (38, -5.72080850601196290000e-001) (39, -1.46025598049163820000e-001) (40, -9.13107693195343020000e-002) (41, -2.64969497919082640000e-001) (42, 1.77748035639524460000e-002) (43, -3.23019593954086300000e-001) (44, -3.78968894481658940000e-001) (45, -6.67984411120414730000e-002) (46, -1.93976879119873050000e-001) (47, -2.70409911870956420000e-001) (48, -1.17521584033966060000e+000) (0, 5.40502429008483890000e-001) (1, 7.06269383430480960000e-001) (2, 8.86003375053405760000e-001) (3, 1.25476992130279540000e+000) (4, -6.29332363605499270000e-001) (5, -3.25627475976943970000e-001) (6, -1.18417716026306150000e+000) (7, 9.95309799909591670000e-002) (8, 1.24041415750980380000e-001) (9, 8.11656236648559570000e-001) (10, 6.65802121162414550000e-001) (11, -5.24711459875106810000e-002) (12, 1.21112716197967530000e+000) (13, 5.65878152847290040000e-001) (14, -8.17644655704498290000e-001) (15, -5.01850187778472900000e-001) (16, 5.82560375332832340000e-002) (17, -5.22174119949340820000e-001) (18, 4.95295286178588870000e-001) (19, 1.09068465232849120000e+000) (20, -9.77443344891071320000e-003) (21, 1.12376296520233150000e+000) (22, 1.06827056407928470000e+000) (23, 1.98246017098426820000e-001) (24, -8.38243663311004640000e-001) (25, -2.79831916093826290000e-001) (26, -8.07771325111389160000e-001) (27, 2.96072244644165040000e-001) (28, 1.25259339809417720000e+000) (29, 4.82290565967559810000e-001) (30, 9.29854452610015870000e-001) (31, 2.77085870504379270000e-001) (32, -5.22213995456695560000e-001) (33, -6.41311824321746830000e-001) (34, -6.97685241699218750000e-001) (35, -1.08132505416870120000e+000) (36, -7.53879129886627200000e-001) (37, 4.02744919061660770000e-001) (38, 9.89358007907867430000e-001) (39, 4.67139929533004760000e-001) (40, -7.94181942939758300000e-001) (41, -3.35515409708023070000e-001) (42, -7.47235000133514400000e-001) (43, -9.74700748920440670000e-001) (44, -6.45939111709594730000e-001) (45, -9.74506318569183350000e-001) (46, 3.97250324487686160000e-001) (47, 2.65759110450744630000e-001) (48, -3.36402678489685060000e+000) (0, -2.99600940197706220000e-002) (1, -1.70538961887359620000e-001) (2, -1.34091034531593320000e-001) (3, -2.53447860479354860000e-001) (4, -3.03881227970123290000e-001) (5, -1.62917107343673710000e-001) (6, 7.95871671289205550000e-003) (7, -1.30686527118086810000e-002) (8, -7.59001374244689940000e-002) (9, -4.14854526519775390000e-001) (10, -2.76314169168472290000e-001) (11, -2.72895187139511110000e-001) (12, -2.22305238246917720000e-001) (13, -1.32796213030815120000e-001) (14, 2.93524097651243210000e-002) (15, 1.07063017785549160000e-001) (16, -2.54185467958450320000e-001) (17, -3.28172147274017330000e-001) (18, -2.55405932664871220000e-001) (19, -3.76636177301406860000e-001) (20, -2.58231282234191890000e-001) (21, -3.01218479871749880000e-001) (22, -2.30711340904235840000e-001) (23, -2.38751739263534550000e-001) (24, -1.62361070513725280000e-001) (25, -3.00614893436431880000e-001) (26, -3.44567626714706420000e-001) (27, -3.57824444770812990000e-001) (28, -4.30085927248001100000e-001) (29, -3.21732252836227420000e-001) (30, -3.99897783994674680000e-001) (31, -3.68153631687164310000e-001) (32, 1.02092903107404710000e-002) (33, -4.40756797790527340000e-001) (34, -3.35270285606384280000e-001) (35, -5.79142272472381590000e-001) (36, -3.53376835584640500000e-001) (37, -3.16232353448867800000e-001) (38, -3.58473807573318480000e-001) (39, -3.01660895347595210000e-002) (40, 6.81530088186264040000e-002) (41, -2.69584059715271000000e-001) (42, -1.67543381452560420000e-001) (43, -6.03590130805969240000e-001) (44, -3.99292320013046260000e-001) (45, -3.20227980613708500000e-001) (46, -1.47849693894386290000e-001) (47, -8.45915973186492920000e-002) (48, -1.12960255146026610000e+000) (0, -6.29535168409347530000e-002) (1, -1.17006421089172360000e-001) (2, -5.73191344738006590000e-002) (3, -6.30654096603393550000e-002) (4, -4.32063311338424680000e-001) (5, -1.18440032005310060000e-001) (6, -2.88028299808502200000e-001) (7, -1.12145110964775090000e-001) (8, 2.64481771737337110000e-002) (9, -8.99197757244110110000e-002) (10, -7.86464363336563110000e-002) (11, 5.03874290734529500000e-003) (12, -2.06741049885749820000e-001) (13, -2.03720062971115110000e-001) (14, -1.67769521474838260000e-001) (15, -1.20808318257331850000e-001) (16, 2.09800213575363160000e-001) (17, 5.11983893811702730000e-002) (18, -2.90783852338790890000e-001) (19, -2.36023560166358950000e-001) (20, -1.89285501837730410000e-001) (21, -1.89635500311851500000e-001) (22, -1.63546949625015260000e-001) (23, -2.51065880060195920000e-001) (24, 1.89583882689476010000e-001) (25, -1.03826433420181270000e-001) (26, 9.93269011378288270000e-002) (27, -1.56438574194908140000e-001) (28, -1.80248051881790160000e-001) (29, -2.71748751401901250000e-001) (30, -2.17143625020980830000e-001) (31, -3.65794867277145390000e-001) (32, -2.78967827558517460000e-001) (33, 2.47330102138221260000e-003) (34, -4.51241619884967800000e-002) (35, -1.80443003773689270000e-001) (36, -3.31244200468063350000e-001) (37, -1.83729961514472960000e-001) (38, -1.24553851783275600000e-001) (39, -1.04406677186489110000e-001) (40, -3.48458141088485720000e-001) (41, -2.98815637826919560000e-001) (42, -9.06880944967269900000e-002) (43, -1.77233546972274780000e-001) (44, -3.20893347263336180000e-001) (45, -6.11810013651847840000e-004) (46, -1.37122785672545430000e-002) (47, 1.27324583008885380000e-002) (48, -1.56580770015716550000e+000) (0, -1.26711994409561160000e-001) (1, -1.05945415794849400000e-001) (2, -7.62381474487483500000e-004) (3, -2.17741340398788450000e-001) (4, -1.51176348328590390000e-001) (5, -1.12197384238243100000e-001) (6, -2.40538656711578370000e-001) (7, -2.63326913118362430000e-001) (8, -4.96182925999164580000e-002) (9, 9.34346243739128110000e-002) (10, 1.79988533258438110000e-001) (11, 6.54517859220504760000e-002) (12, -1.47097766399383540000e-001) (13, -4.27071720361709590000e-001) (14, -2.63525754213333130000e-001) (15, 5.31181618571281430000e-002) (16, 2.35114425420761110000e-001) (17, 2.52426892518997190000e-001) (18, -2.16998621821403500000e-001) (19, -6.70056715607643130000e-002) (20, 5.28012309223413470000e-003) (21, 1.52459055185317990000e-001) (22, 2.26943850517272950000e-001) (23, 1.20485112071037290000e-001) (24, 1.92532613873481750000e-001) (25, -1.01132616400718690000e-001) (26, 4.74756918847560880000e-002) (27, -2.10869655013084410000e-001) (28, -7.66987055540084840000e-002) (29, -1.98492780327796940000e-001) (30, -1.03169389069080350000e-001) (31, 7.51720070838928220000e-002) (32, -1.42021924257278440000e-001) (33, 1.57954573631286620000e-001) (34, 8.59460607171058650000e-002) (35, -2.15121194720268250000e-001) (36, -1.52282357215881350000e-001) (37, -9.34074670076370240000e-002) (38, 1.98415070772171020000e-002) (39, -1.19212873280048370000e-001) (40, -3.10863584280014040000e-001) (41, 8.36942121386528020000e-002) (42, -3.39551687240600590000e-001) (43, -6.79733902215957640000e-002) (44, -2.34056990593671800000e-002) (45, -1.07213072478771210000e-001) (46, -1.11539594829082490000e-001) (47, -2.02992245554924010000e-001) (48, -1.57468175888061520000e+000) (0, -8.09421110898256300000e-003) (1, -5.53766489028930660000e-002) (2, -2.62217409908771510000e-002) (3, -1.97878465056419370000e-001) (4, -2.14814871549606320000e-001) (5, -4.02406528592109680000e-002) (6, 6.31088949739933010000e-003) (7, 1.30610823631286620000e-001) (8, -1.08453758060932160000e-001) (9, -2.27709501981735230000e-001) (10, -2.31788563542068000000e-003) (11, -1.00055582821369170000e-001) (12, -2.28548780083656310000e-001) (13, 1.41636328771710400000e-003) (14, -1.91925913095474240000e-002) (15, -6.04511499404907230000e-002) (16, -1.21858581900596620000e-001) (17, -2.38871976733207700000e-001) (18, -1.03209942579269410000e-001) (19, -2.63606339693069460000e-001) (20, -1.18344888091087340000e-001) (21, -1.03145815432071690000e-001) (22, -1.40687033534049990000e-001) (23, -2.02687144279479980000e-001) (24, -2.13624119758605960000e-001) (25, -5.22474907338619230000e-002) (26, -1.23397611081600190000e-001) (27, -1.47385880351066590000e-001) (28, -2.47065603733062740000e-001) (29, -3.44845652580261230000e-002) (30, -1.95603907108306880000e-001) (31, -6.25454559922218320000e-002) (32, 1.09753988683223720000e-001) (33, -1.46155849099159240000e-001) (34, -2.24810197949409480000e-001) (35, -2.84868836402893070000e-001) (36, -2.34059706330299380000e-001) (37, -1.96230843663215640000e-001) (38, -1.70886367559432980000e-002) (39, -7.22300484776496890000e-002) (40, 5.54388724267482760000e-002) (41, -5.75393773615360260000e-002) (42, -4.40849773585796360000e-002) (43, -2.52483785152435300000e-001) (44, -2.34050363302230830000e-001) (45, -2.02675282955169680000e-001) (46, -1.29645884037017820000e-001) (47, -1.18640065193176270000e-001) (48, -1.53558480739593510000e+000) (0, -4.41202446818351750000e-002) (1, -1.31702616810798650000e-001) (2, -1.11834786832332610000e-001) (3, 7.47814681380987170000e-003) (4, -3.12130719423294070000e-001) (5, -2.03490033745765690000e-001) (6, -2.28378161787986760000e-001) (7, -1.76559835672378540000e-001) (8, 1.06774985790252690000e-001) (9, -4.46051865816116330000e-001) (10, -1.78083688020706180000e-001) (11, -2.48158261179924010000e-001) (12, -3.59409898519515990000e-001) (13, -1.18129819631576540000e-001) (14, 1.05554923415184020000e-001) (15, -5.29204457998275760000e-002) (16, -3.91244024038314820000e-001) (17, -6.02155864238739010000e-001) (18, -1.77604481577873230000e-001) (19, -4.09839808940887450000e-001) (20, -3.74093949794769290000e-001) (21, -3.28656494617462160000e-001) (22, -1.16559267044067380000e-001) (23, -6.15997686982154850000e-002) (24, -3.41293722391128540000e-001) (25, -5.45447051525115970000e-001) (26, -5.51595449447631840000e-001) (27, -2.76252686977386470000e-001) (28, -2.86038398742675780000e-001) (29, -3.02785873413085940000e-001) (30, -2.90329307317733760000e-001) (31, -4.18971143662929530000e-002) (32, -7.03962966799736020000e-002) (33, -6.03286623954772950000e-001) (34, -5.64925670623779300000e-001) (35, -5.35992145538330080000e-001) (36, -2.45475679636001590000e-001) (37, -3.26523005962371830000e-001) (38, -1.94289579987525940000e-001) (39, -6.15926459431648250000e-002) (40, 1.20868466794490810000e-001) (41, -2.97532856464385990000e-001) (42, -1.11383847892284390000e-001) (43, -6.89379334449768070000e-001) (44, -3.93534690141677860000e-001) (45, -2.26988926529884340000e-001) (46, -5.77108561992645260000e-002) (47, -3.49300205707550050000e-002) (48, -1.23768532276153560000e+000) (0, -2.52340845763683320000e-002) (1, -1.84225633740425110000e-001) (2, -2.90414303541183470000e-001) (3, -1.66996911168098450000e-001) (4, -3.90388935804367070000e-001) (5, -9.19294431805610660000e-002) (6, -7.09955720230937000000e-003) (7, 2.54568569362163540000e-002) (8, 7.79992341995239260000e-002) (9, -3.42904955148696900000e-001) (10, -2.72447317838668820000e-001) (11, -2.17641144990921020000e-001) (12, -3.65414470434188840000e-001) (13, 9.72927082329988480000e-003) (14, 4.47927564382553100000e-002) (15, 2.03534826636314390000e-001) (16, -2.13903009891510010000e-001) (17, -3.70384931564331050000e-001) (18, -3.82504701614379880000e-001) (19, -5.35087406635284420000e-001) (20, -3.85541796684265140000e-001) (21, -4.70906496047973630000e-001) (22, -2.50121742486953740000e-001) (23, -4.11419421434402470000e-001) (24, -1.48137345910072330000e-001) (25, -3.44851195812225340000e-001) (26, -4.86096352338790890000e-001) (27, -4.59077447652816770000e-001) (28, -4.94731128215789790000e-001) (29, -4.65799957513809200000e-001) (30, -4.31559711694717410000e-001) (31, -5.38929045200347900000e-001) (32, 6.40026852488517760000e-002) (33, -5.02673327922821040000e-001) (34, -6.00408792495727540000e-001) (35, -7.24712073802948000000e-001) (36, -5.33897161483764650000e-001) (37, -4.49156999588012700000e-001) (38, -5.23793220520019530000e-001) (39, 6.45395517349243160000e-002) (40, 5.73090687394142150000e-002) (41, -2.20073312520980830000e-001) (42, -1.36800244450569150000e-001) (43, -7.93325543403625490000e-001) (44, -6.20619535446166990000e-001) (45, -4.19115096330642700000e-001) (46, -7.25035276263952260000e-003) (47, -1.09779343008995060000e-001) (48, -8.23506295680999760000e-001) (0, 5.23849427700042720000e-002) (1, -1.69182550162076950000e-002) (2, 5.87475933134555820000e-002) (3, -5.30525483191013340000e-002) (4, -1.01247139275074010000e-001) (5, -8.63198563456535340000e-002) (6, -2.15441435575485230000e-001) (7, -1.11862622201442720000e-001) (8, 5.06270527839660640000e-002) (9, 1.10732518136501310000e-001) (10, -4.37479466199874880000e-002) (11, 1.93016901612281800000e-002) (12, -2.60888457298278810000e-001) (13, -9.80550572276115420000e-002) (14, -1.65479972958564760000e-001) (15, -2.37547874450683590000e-001) (16, 2.29569122195243840000e-001) (17, 1.70320607721805570000e-002) (18, -9.56703070551157000000e-003) (19, -8.58359187841415410000e-002) (20, -1.07369244098663330000e-001) (21, -1.24266505241394040000e-001) (22, -8.57826992869377140000e-002) (23, 1.87207832932472230000e-001) (24, 1.79715864360332490000e-002) (25, 6.26646652817726140000e-002) (26, 1.08077205717563630000e-001) (27, 1.73786282539367680000e-002) (28, -2.26319395005702970000e-002) (29, -5.82998394966125490000e-002) (30, 1.47018432617187500000e-001) (31, 1.14548727869987490000e-001) (32, -2.77647644281387330000e-001) (33, 2.59731896221637730000e-002) (34, 1.50429770350456240000e-001) (35, -1.04833617806434630000e-001) (36, -2.34716415405273440000e-001) (37, 2.48729698359966280000e-002) (38, -8.02309289574623110000e-002) (39, -1.88355054706335070000e-002) (40, -2.94564425945281980000e-001) (41, -1.25956432893872260000e-002) (42, -1.18481762707233430000e-001) (43, 1.89365502446889880000e-002) (44, -7.93257653713226320000e-002) (45, 6.32027909159660340000e-002) (46, -7.53203332424163820000e-002) (47, 1.81981511414051060000e-002) (48, -1.65820550918579100000e+000) (0, -2.67916589975357060000e-001) (1, -1.38674750924110410000e-001) (2, 1.64368003606796260000e-003) (3, -7.71116390824317930000e-002) (4, 3.64431560039520260000e-001) (5, 1.11222982406616210000e-001) (6, -2.44800567626953130000e-001) (7, -2.30892300605773930000e-001) (8, -4.31401461362838750000e-001) (9, -9.85524430871009830000e-003) (10, 9.52011719346046450000e-002) (11, -4.33102138340473180000e-002) (12, 1.94576606154441830000e-001) (13, -2.43680134415626530000e-001) (14, -4.27523076534271240000e-001) (15, -3.72028321027755740000e-001) (16, -1.27320382744073870000e-002) (17, 3.97490002214908600000e-002) (18, 2.32586055994033810000e-001) (19, 3.99047195911407470000e-001) (20, 2.45694682002067570000e-001) (21, 2.20096096396446230000e-001) (22, 3.62730592489242550000e-001) (23, 3.62121731042861940000e-001) (24, 9.71985887736082080000e-003) (25, -6.35992661118507390000e-002) (26, 3.18373352289199830000e-001) (27, 2.13542416691780090000e-001) (28, -1.45770445466041560000e-001) (29, 2.49704942107200620000e-001) (30, 3.83982956409454350000e-001) (31, 4.57119762897491460000e-001) (32, 9.26507711410522460000e-002) (33, 3.28588157892227170000e-001) (34, 3.98566633462905880000e-001) (35, 2.83636838197708130000e-001) (36, 6.31457194685935970000e-002) (37, 2.54873722791671750000e-001) (38, 4.56093668937683110000e-001) (39, -1.81991472840309140000e-001) (40, 1.28425389528274540000e-001) (41, 2.44096040725708010000e-001) (42, 7.39993825554847720000e-002) (43, 3.18710893392562870000e-001) (44, 2.96506788581609730000e-002) (45, -2.15313151478767400000e-001) (46, -1.90955311059951780000e-001) (47, 5.11391612235456710000e-004) (48, -1.66983544826507570000e+000) (0, -1.94245666265487670000e-001) (1, 2.05353535711765290000e-002) (2, 1.79190441966056820000e-001) (3, -4.53190393745899200000e-002) (4, 2.64067262411117550000e-001) (5, 1.16759672760963440000e-001) (6, -1.77416071295738220000e-001) (7, -7.62129053473472600000e-002) (8, -2.89998531341552730000e-001) (9, 2.54428327083587650000e-001) (10, 2.04835474491119380000e-001) (11, -1.70287899672985080000e-002) (12, 1.44448941573500630000e-002) (13, -3.17554354667663570000e-001) (14, -4.56781238317489620000e-001) (15, -1.66881650686264040000e-001) (16, 1.17117248475551610000e-001) (17, 2.33089432120323180000e-001) (18, 1.56834736466407780000e-001) (19, 2.83125132322311400000e-001) (20, 4.40628044307231900000e-002) (21, 1.26722306013107300000e-001) (22, 1.77290305495262150000e-001) (23, 2.87428855895996090000e-001) (24, 3.03579509258270260000e-001) (25, 1.18523456156253810000e-001) (26, 4.02629882097244260000e-001) (27, -1.53293721377849580000e-002) (28, -1.19553856551647190000e-001) (29, 2.27640599012374880000e-001) (30, 4.34146553277969360000e-001) (31, 4.76809084415435790000e-001) (32, 5.60314906761050220000e-003) (33, 4.82587367296218870000e-001) (34, 4.01867449283599850000e-001) (35, 6.06831423938274380000e-002) (36, -1.48234277963638310000e-001) (37, 1.52270942926406860000e-001) (38, 3.09676647186279300000e-001) (39, -1.00178308784961700000e-001) (40, 2.46133208274841310000e-002) (41, 2.42790266871452330000e-001) (42, -2.01186999678611760000e-001) (43, 2.60141938924789430000e-001) (44, -8.32416862249374390000e-002) (45, -9.96298864483833310000e-002) (46, -1.64157629013061520000e-001) (47, 3.81827331148087980000e-003) (48, -1.62930572032928470000e+000) (0, -6.59772828221321110000e-002) (1, -2.52670973539352420000e-001) (2, -1.69738307595252990000e-001) (3, 1.11881479620933530000e-001) (4, -1.64200291037559510000e-001) (5, -2.81130999326705930000e-001) (6, -2.75571718811988830000e-002) (7, -1.22910909354686740000e-001) (8, -1.75707280635833740000e-001) (9, -7.55030095577239990000e-001) (10, -2.34531670808792110000e-001) (11, -2.52496123313903810000e-001) (12, -1.96688398718833920000e-002) (13, -9.27000679075717930000e-003) (14, 4.06703472137451170000e-001) (15, -1.48503139615058900000e-001) (16, -5.96263349056243900000e-001) (17, -1.03210806846618650000e+000) (18, -4.44606572389602660000e-001) (19, -5.36417365074157710000e-001) (20, -3.64454180002212520000e-001) (21, -1.71653807163238530000e-001) (22, -1.59997850656509400000e-001) (23, 1.73414140939712520000e-001) (24, -6.59237742424011230000e-001) (25, -8.41946899890899660000e-001) (26, -7.94923305511474610000e-001) (27, -7.72733330726623540000e-001) (28, -3.64275664091110230000e-001) (29, -8.08616280555725100000e-001) (30, -2.01559200882911680000e-001) (31, -6.63363188505172730000e-002) (32, -3.09124112129211430000e-001) (33, -1.07538819313049320000e+000) (34, -8.26341390609741210000e-001) (35, -9.71323907375335690000e-001) (36, -6.49570226669311520000e-001) (37, -3.30953657627105710000e-001) (38, -6.76102817058563230000e-001) (39, -2.53643184900283810000e-001) (40, 1.46324351429939270000e-001) (41, -5.57888865470886230000e-001) (42, -9.65469777584075930000e-002) (43, -1.09963130950927730000e+000) (44, -7.01883792877197270000e-001) (45, -4.22713249921798710000e-001) (46, -2.17865794897079470000e-001) (47, -2.58478134870529170000e-001) (48, -6.91864728927612300000e-001) (0, -4.24358211457729340000e-002) (1, -2.43874579668045040000e-001) (2, -6.32944881916046140000e-001) (3, -4.02144789695739750000e-001) (4, -6.13442957401275630000e-001) (5, -2.52388603985309600000e-002) (6, -9.73393395543098450000e-002) (7, -2.76837885379791260000e-001) (8, -2.21585392951965330000e-001) (9, -2.92143642902374270000e-001) (10, -4.77074682712554930000e-001) (11, -4.46551233530044560000e-001) (12, -5.42569339275360110000e-001) (13, -1.67493760585784910000e-001) (14, -4.35841232538223270000e-002) (15, -7.62894526124000550000e-002) (16, -6.99926167726516720000e-002) (17, -5.97987294197082520000e-001) (18, -4.79686111211776730000e-002) (19, -8.14626872539520260000e-001) (20, -6.91742420196533200000e-001) (21, -6.43457114696502690000e-001) (22, -4.75329965353012080000e-001) (23, -4.83188807964324950000e-001) (24, 3.50494384765625000000e-001) (25, -1.70529961585998540000e-001) (26, -3.17651659250259400000e-001) (27, -4.32162970304489140000e-001) (28, -3.72629761695861820000e-001) (29, -5.52184641361236570000e-001) (30, -3.42022925615310670000e-001) (31, -9.69896137714385990000e-001) (32, -6.40484467148780820000e-002) (33, -1.62458151578903200000e-001) (34, -1.03733554482460020000e-001) (35, -5.23381710052490230000e-001) (36, -8.99600803852081300000e-001) (37, -4.10711318254470830000e-001) (38, -5.86100995540618900000e-001) (39, -3.04806321859359740000e-001) (40, -2.19409897923469540000e-001) (41, -3.04247736930847170000e-001) (42, 1.87641128897666930000e-001) (43, -1.70525312423706050000e-001) (44, -6.93361997604370120000e-001) (45, -2.87775665521621700000e-001) (46, -2.57464349269866940000e-001) (47, -3.12670804560184480000e-002) (48, -9.31711733341217040000e-001) (0, -7.39801079034805300000e-002) (1, -1.60227432847023010000e-001) (2, 5.31857125461101530000e-002) (3, -1.57960310578346250000e-001) (4, -3.97033207118511200000e-002) (5, 1.06161899864673610000e-001) (6, -1.09845422208309170000e-001) (7, -2.05952301621437070000e-002) (8, -2.69666284322738650000e-001) (9, -4.96205016970634460000e-002) (10, 2.80189216136932370000e-002) (11, 1.43171884119510650000e-002) (12, -1.29382714629173280000e-001) (13, -1.95599168539047240000e-001) (14, -1.23395644128322600000e-001) (15, -8.52179750800132750000e-002) (16, -1.36440068483352660000e-001) (17, 4.75358217954635620000e-002) (18, 1.55377075076103210000e-001) (19, -1.86650399118661880000e-002) (20, 1.02546609938144680000e-001) (21, -2.27219369262456890000e-002) (22, 6.34534582495689390000e-002) (23, 6.10767938196659090000e-002) (24, 8.97013172507286070000e-002) (25, 1.55300507321953770000e-002) (26, -3.00987381488084790000e-002) (27, -1.73555836081504820000e-002) (28, -1.87952578067779540000e-001) (29, 2.18026384711265560000e-001) (30, 2.71056890487670900000e-001) (31, 1.86961099505424500000e-001) (32, 1.01112700998783110000e-001) (33, 1.55647158622741700000e-001) (34, 2.29814752936363220000e-001) (35, 1.71729937195777890000e-001) (36, -4.48189908638596530000e-003) (37, 1.61819919943809510000e-001) (38, 1.44540622830390930000e-001) (39, -1.17699779570102690000e-001) (40, 3.10782529413700100000e-002) (41, 1.03611961007118230000e-001) (42, 5.77824935317039490000e-002) (43, 2.49721378087997440000e-001) (44, 4.68737073242664340000e-002) (45, -9.80574078857898710000e-003) (46, -1.99108928442001340000e-001) (47, -1.08051039278507230000e-001) (48, -1.69786381721496580000e+000) (0, -1.34297817945480350000e-001) (1, -9.05173644423484800000e-002) (2, -5.64764551818370820000e-002) (3, -1.89365431666374210000e-001) (4, -5.10198958218097690000e-002) (5, -8.51611495018005370000e-002) (6, -1.07904024422168730000e-001) (7, -1.57898008823394780000e-001) (8, -1.03190980851650240000e-001) (9, -3.81373800337314610000e-002) (10, -2.58039552718400960000e-002) (11, 2.66231726855039600000e-002) (12, -3.23974639177322390000e-001) (13, -2.21883788704872130000e-001) (14, -1.65357068181037900000e-002) (15, -1.99267476797103880000e-001) (16, 1.86177194118499760000e-001) (17, 1.35852754116058350000e-001) (18, 4.75581251084804530000e-002) (19, -5.36189600825309750000e-002) (20, -6.08418658375740050000e-002) (21, -1.49294078350067140000e-001) (22, -2.76123117655515670000e-002) (23, 8.74418169260025020000e-002) (24, 4.72562313079833980000e-002) (25, 2.83514223992824550000e-002) (26, 1.78356438875198360000e-001) (27, -3.49820293486118320000e-002) (28, -8.28473418951034550000e-002) (29, 9.96379777789115910000e-002) (30, 1.32604375481605530000e-001) (31, 1.90493956208229060000e-001) (32, -8.64590108394622800000e-002) (33, 1.17482528090476990000e-001) (34, 2.87437587976455690000e-001) (35, 4.88177165389060970000e-002) (36, -8.97457301616668700000e-002) (37, 3.92845198512077330000e-002) (38, 1.64307892322540280000e-001) (39, -1.18217639625072480000e-001) (40, -2.10722222924232480000e-001) (41, 1.60518921911716460000e-002) (42, -8.65531787276268010000e-002) (43, 1.47655203938484190000e-001) (44, 5.67970648407936100000e-002) (45, 1.51349917054176330000e-001) (46, -1.24092519283294680000e-001) (47, -3.24258394539356230000e-002) (48, -1.63588154315948490000e+000) (0, 6.99471458792686460000e-002) (1, -1.25014200806617740000e-001) (2, -2.96824216842651370000e-001) (3, -1.83582589030265810000e-001) (4, -3.86921375989913940000e-001) (5, -1.16751290857791900000e-001) (6, -6.59971237182617190000e-002) (7, 7.39526003599166870000e-003) (8, -1.21387355029582980000e-001) (9, -5.77750384807586670000e-001) (10, -4.28373157978057860000e-001) (11, -4.28632974624633790000e-001) (12, -1.90752714872360230000e-001) (13, -1.14672437310218810000e-001) (14, 2.50673562288284300000e-001) (15, -4.54152226448059080000e-002) (16, -3.78965646028518680000e-001) (17, -7.34475791454315190000e-001) (18, -4.71013158559799190000e-001) (19, -4.73244845867156980000e-001) (20, -4.39530581235885620000e-001) (21, -3.18532794713974000000e-001) (22, -2.95731395483016970000e-001) (23, -1.85788810253143310000e-001) (24, -4.28115934133529660000e-001) (25, -4.47717815637588500000e-001) (26, -5.76506674289703370000e-001) (27, -6.83560848236083980000e-001) (28, -3.97249221801757810000e-001) (29, -6.51319265365600590000e-001) (30, -4.91514742374420170000e-001) (31, -5.03840148448944090000e-001) (32, -1.40782922506332400000e-001) (33, -6.70164823532104490000e-001) (34, -6.39594793319702150000e-001) (35, -9.58490848541259770000e-001) (36, -5.04332304000854490000e-001) (37, -4.18087303638458250000e-001) (38, -5.75459182262420650000e-001) (39, -1.67181774973869320000e-001) (40, 8.70630666613578800000e-002) (41, -3.67256194353103640000e-001) (42, -5.73084913194179530000e-002) (43, -1.00136995315551760000e+000) (44, -6.44447028636932370000e-001) (45, -4.51207011938095090000e-001) (46, -1.46484240889549260000e-001) (47, -1.55136942863464360000e-001) (48, -6.47141277790069580000e-001) (0, -1.41308143734931950000e-001) (1, -1.66338488459587100000e-001) (2, -4.64594773948192600000e-002) (3, -2.35931456089019780000e-001) (4, -1.30176186561584470000e-001) (5, 1.43859554082155230000e-002) (6, -7.00240731239318850000e-002) (7, -1.30837127566337590000e-001) (8, -6.78693354129791260000e-002) (9, -1.15630961954593660000e-001) (10, -1.85227617621421810000e-001) (11, -9.71054807305336000000e-002) (12, -1.53372943401336670000e-001) (13, -1.76316320896148680000e-001) (14, -9.33105275034904480000e-002) (15, -7.40350782871246340000e-002) (16, 1.39690786600112920000e-002) (17, -4.40273359417915340000e-002) (18, -1.44387930631637570000e-001) (19, -1.57297104597091670000e-001) (20, -1.51941210031509400000e-001) (21, -2.88573175668716430000e-001) (22, -7.14151859283447270000e-002) (23, -2.25350677967071530000e-001) (24, 7.71092325448989870000e-002) (25, -1.14969849586486820000e-001) (26, -1.28114655613899230000e-001) (27, -1.62298575043678280000e-001) (28, -1.60144165158271790000e-001) (29, -1.81091636419296260000e-001) (30, -9.56835895776748660000e-002) (31, -6.67534172534942630000e-002) (32, -5.26683637872338290000e-003) (33, -1.09122693538665770000e-001) (34, -2.89017613977193830000e-002) (35, -2.58342385292053220000e-001) (36, -2.08284422755241390000e-001) (37, -1.11079469323158260000e-001) (38, -2.08655983209609990000e-001) (39, -1.11154325306415560000e-001) (40, -9.43276807665824890000e-002) (41, -1.57435297966003420000e-001) (42, -1.38744518160820010000e-001) (43, -3.12434613704681400000e-001) (44, -3.34518343210220340000e-001) (45, -2.14418590068817140000e-001) (46, -2.75687407702207570000e-002) (47, -8.81984457373619080000e-003) (48, -1.50247383117675780000e+000) (0, 3.01113761961460110000e-002) (1, -2.09898948669433590000e-001) (2, -1.19706831872463230000e-001) (3, -7.92685896158218380000e-003) (4, -2.98045158386230470000e-001) (5, -2.10068836808204650000e-001) (6, -1.92008078098297120000e-001) (7, -9.87178683280944820000e-002) (8, 2.13622730225324630000e-002) (9, -3.61278295516967770000e-001) (10, -3.74213010072708130000e-001) (11, -3.55667948722839360000e-001) (12, -1.65221035480499270000e-001) (13, -6.09417520463466640000e-002) (14, 6.75569660961627960000e-003) (15, -2.40451991558074950000e-002) (16, -1.83115407824516300000e-001) (17, -2.76872545480728150000e-001) (18, -2.95322299003601070000e-001) (19, -4.39502060413360600000e-001) (20, -3.27577710151672360000e-001) (21, -3.86303842067718510000e-001) (22, -3.34312379360198970000e-001) (23, -4.53746736049652100000e-001) (24, -1.96897715330123900000e-001) (25, -4.08472001552581790000e-001) (26, -4.52262341976165770000e-001) (27, -4.07788336277008060000e-001) (28, -3.35406631231307980000e-001) (29, -3.97523313760757450000e-001) (30, -3.87443274259567260000e-001) (31, -5.23386418819427490000e-001) (32, -1.29129886627197270000e-001) (33, -4.25379931926727290000e-001) (34, -4.35284137725830080000e-001) (35, -6.83591663837432860000e-001) (36, -5.23178458213806150000e-001) (37, -3.29623550176620480000e-001) (38, -3.36886525154113770000e-001) (39, -1.01942993700504300000e-001) (40, 2.25592870265245440000e-002) (41, -3.01799058914184570000e-001) (42, -7.64669701457023620000e-002) (43, -7.53357112407684330000e-001) (44, -5.57499110698699950000e-001) (45, -2.71008461713790890000e-001) (46, -1.04757755994796750000e-001) (47, 6.42716661095619200000e-002) (48, -9.16057407855987550000e-001) (0, -4.18251613155007360000e-003) (1, 1.55646195635199550000e-002) (2, 3.89797538518905640000e-002) (3, 2.42229457944631580000e-002) (4, -1.76023826003074650000e-001) (5, 7.37557047978043560000e-003) (6, -1.83045074343681340000e-001) (7, -2.04463422298431400000e-001) (8, 8.09374600648880000000e-002) (9, -2.72495239973068240000e-001) (10, -9.82220992445945740000e-002) (11, -2.43733227252960210000e-001) (12, -1.65815457701683040000e-001) (13, -6.45514577627182010000e-002) (14, 9.60165336728096010000e-002) (15, -2.55072027444839480000e-001) (16, 5.66967278718948360000e-002) (17, -3.36523413658142090000e-001) (18, -1.11040107905864720000e-001) (19, -1.26812189817428590000e-001) (20, -3.30703079700469970000e-001) (21, -1.83965891599655150000e-001) (22, -2.01679632067680360000e-001) (23, 1.07795959338545800000e-002) (24, -7.77207389473915100000e-002) (25, -1.17051646113395690000e-001) (26, -2.06065669655799870000e-001) (27, -1.58157154917716980000e-001) (28, -1.86784118413925170000e-001) (29, -1.61472424864768980000e-001) (30, 8.15632492303848270000e-002) (31, 1.29773229360580440000e-001) (32, -1.07008285820484160000e-001) (33, -3.23446810245513920000e-001) (34, -1.79618209600448610000e-001) (35, -2.80927479267120360000e-001) (36, -2.64900892972946170000e-001) (37, -6.61368966102600100000e-002) (38, -5.74422031641006470000e-002) (39, -6.04209639132022860000e-002) (40, -4.18685041368007660000e-002) (41, -1.45101040601730350000e-001) (42, -1.99591934680938720000e-001) (43, -2.49787315726280210000e-001) (44, -1.44971743226051330000e-001) (45, -1.78358197212219240000e-001) (46, -6.66054934263229370000e-002) (47, 4.58156391978263850000e-002) (48, -1.56724381446838380000e+000) (0, -1.04446694254875180000e-001) (1, -1.20822034776210780000e-001) (2, -1.10476553440093990000e-001) (3, -5.03075569868087770000e-002) (4, -1.03698484599590300000e-001) (5, -1.18462972342967990000e-001) (6, -6.56303688883781430000e-002) (7, -1.31393820047378540000e-001) (8, -1.42655923962593080000e-001) (9, -3.21135036647319790000e-002) (10, 3.20593640208244320000e-002) (11, -1.26273140311241150000e-001) (12, -2.27924555540084840000e-001) (13, -6.39485418796539310000e-002) (14, -2.86563068628311160000e-001) (15, -2.84887310117483140000e-002) (16, -2.03569009900093080000e-001) (17, -9.31039378046989440000e-002) (18, 5.87522909045219420000e-002) (19, -3.30357477068901060000e-002) (20, 3.23488414287567140000e-002) (21, -1.05531282722949980000e-001) (22, -5.48730604350566860000e-002) (23, -1.33604407310485840000e-001) (24, -5.04075959324836730000e-002) (25, -1.00608192384243010000e-001) (26, -8.01036283373832700000e-002) (27, -2.13547274470329280000e-001) (28, -2.86808431148529050000e-001) (29, -5.63406236469745640000e-002) (30, -3.10359038412570950000e-002) (31, -4.90644201636314390000e-003) (32, 1.01484656333923340000e-001) (33, 4.34483997523784640000e-002) (34, 1.52239939197897910000e-002) (35, -1.80546075105667110000e-001) (36, -1.21250353753566740000e-001) (37, -1.61063894629478450000e-001) (38, 1.08992876484990120000e-002) (39, -2.35276177525520320000e-001) (40, 1.09467029571533200000e-001) (41, -7.13979126885533330000e-003) (42, -1.85626626014709470000e-001) (43, -1.76798388361930850000e-001) (44, -3.16998541355133060000e-001) (45, -1.51747867465019230000e-001) (46, -1.21581055223941800000e-001) (47, -1.90115824341773990000e-001) (48, -1.54239106178283690000e+000) (0, 4.31391112506389620000e-002) (1, -1.38135671615600590000e-001) (2, -2.49508842825889590000e-001) (3, -1.11305385828018190000e-001) (4, -5.15928447246551510000e-001) (5, -8.56128633022308350000e-002) (6, -3.26339662075042720000e-001) (7, -4.32551503181457520000e-001) (8, 1.16854108870029450000e-001) (9, -1.78879991173744200000e-001) (10, -4.09010976552963260000e-001) (11, -2.41375863552093510000e-001) (12, -1.22953653335571290000e-001) (13, 1.66878532618284230000e-002) (14, -4.26775403320789340000e-002) (15, -2.55479484796524050000e-001) (16, 1.28252819180488590000e-001) (17, -2.15347349643707280000e-001) (18, 1.41142820939421650000e-002) (19, -5.22883594036102290000e-001) (20, -6.91657006740570070000e-001) (21, -3.68348896503448490000e-001) (22, -1.69781729578971860000e-001) (23, -3.29175084829330440000e-001) (24, 9.55701023340225220000e-002) (25, -1.40394032001495360000e-001) (26, -8.11682716012001040000e-002) (27, -2.54320889711380000000e-001) (28, 1.32492780685424800000e-002) (29, -5.72837829589843750000e-001) (30, -1.48017570376396180000e-001) (31, -4.59609806537628170000e-001) (32, -3.47268849611282350000e-001) (33, -4.86275762319564820000e-001) (34, -1.52799263596534730000e-001) (35, -2.58956640958786010000e-001) (36, -5.10992705821990970000e-001) (37, -1.07293985784053800000e-001) (38, -4.07242894172668460000e-001) (39, -1.99220269918441770000e-001) (40, -2.43918269872665410000e-001) (41, -4.31180447340011600000e-001) (42, -2.39266920834779740000e-003) (43, -4.15332317352294920000e-001) (44, -2.89110034704208370000e-001) (45, -4.70462590456008910000e-002) (46, -1.49300485849380490000e-001) (47, 1.23278154060244560000e-002) (48, -1.29243659973144530000e+000) (0, -2.01686933636665340000e-001) (1, -2.34786510467529300000e-001) (2, -1.07294850051403050000e-001) (3, -1.43013447523117070000e-001) (4, -3.77528220415115360000e-001) (5, -1.92001461982727050000e-001) (6, 4.06633131206035610000e-002) (7, -8.65822583436965940000e-002) (8, -1.67681068181991580000e-001) (9, -1.97183564305305480000e-001) (10, -2.00168654322624210000e-001) (11, -2.71025061607360840000e-001) (12, -2.48587444424629210000e-001) (13, -1.36083513498306270000e-001) (14, -2.37454660236835480000e-002) (15, 1.98581904172897340000e-001) (16, -1.16523742675781250000e-001) (17, -1.94643139839172360000e-001) (18, -2.46962681412696840000e-001) (19, -3.42898547649383540000e-001) (20, -3.09377282857894900000e-001) (21, -2.58087635040283200000e-001) (22, -2.26538226008415220000e-001) (23, -3.55780959129333500000e-001) (24, -7.91379883885383610000e-002) (25, -1.59906893968582150000e-001) (26, -2.36012294888496400000e-001) (27, -3.58774155378341670000e-001) (28, -4.09671276807785030000e-001) (29, -2.79637306928634640000e-001) (30, -2.93549239635467530000e-001) (31, -4.29702997207641600000e-001) (32, 1.17000646889209750000e-001) (33, -2.75387376546859740000e-001) (34, -3.19294214248657230000e-001) (35, -4.93028640747070310000e-001) (36, -3.33317697048187260000e-001) (37, -2.84215092658996580000e-001) (38, -3.66096407175064090000e-001) (39, -1.54916331171989440000e-001) (40, -2.81815566122531890000e-002) (41, -1.47974342107772830000e-001) (42, -1.72290325164794920000e-001) (43, -4.88580256700515750000e-001) (44, -4.94805634021759030000e-001) (45, -3.30422997474670410000e-001) (46, -6.99927434325218200000e-002) (47, -9.76648926734924320000e-002) (48, -1.24818873405456540000e+000) (0, -2.29759454727172850000e-001) (1, -2.01278217136859890000e-002) (2, 2.11536120623350140000e-002) (3, -1.07577845454216000000e-001) (4, -3.35789978504180910000e-001) (5, -1.54653862118721010000e-001) (6, -7.00557529926300050000e-002) (7, -5.39103522896766660000e-003) (8, -7.99168348312377930000e-002) (9, -1.70298472046852110000e-001) (10, -1.46255150437355040000e-001) (11, -1.40691161155700680000e-001) (12, -4.34159308671951290000e-001) (13, -3.11579518020153050000e-002) (14, -2.42381617426872250000e-001) (15, 2.39423900842666630000e-001) (16, -1.16433486342430110000e-001) (17, -7.85695537924766540000e-002) (18, -1.41925558447837830000e-001) (19, -2.78566360473632810000e-001) (20, -3.50139498710632320000e-001) (21, -2.26625308394432070000e-001) (22, -2.86662191152572630000e-001) (23, -4.84836280345916750000e-001) (24, 4.98616062104702000000e-002) (25, -1.57050788402557370000e-001) (26, -2.90189057588577270000e-001) (27, -3.70881289243698120000e-001) (28, -4.64657098054885860000e-001) (29, -2.19754979014396670000e-001) (30, -5.19057691097259520000e-001) (31, -5.28617501258850100000e-001) (32, 1.55679121613502500000e-001) (33, -3.48317176103591920000e-001) (34, -3.62996548414230350000e-001) (35, -5.56197464466094970000e-001) (36, -4.75601673126220700000e-001) (37, -3.08619499206542970000e-001) (38, -2.13702410459518430000e-001) (39, -7.31264203786849980000e-002) (40, 2.15746592730283740000e-002) (41, -1.74047723412513730000e-001) (42, -2.08446815609931950000e-001) (43, -6.48376584053039550000e-001) (44, -6.48585617542266850000e-001) (45, -2.00518995523452760000e-001) (46, -1.24984674155712130000e-001) (47, -6.21848255395889280000e-002) (48, -1.19513297080993650000e+000) (0, -1.00613117218017580000e-001) (1, -2.62710839509963990000e-001) (2, -2.90507912635803220000e-001) (3, -3.71832281351089480000e-001) (4, -5.06784558296203610000e-001) (5, -5.99715933203697200000e-002) (6, -2.21781060099601750000e-001) (7, -3.85433554649353030000e-001) (8, 9.01379063725471500000e-002) (9, 2.74201072752475740000e-002) (10, 2.62978106737136840000e-001) (11, 6.20193667709827420000e-002) (12, -6.16486370563507080000e-001) (13, -4.91059571504592900000e-001) (14, -3.73413413763046260000e-001) (15, -3.43670338392257690000e-001) (16, 2.74623036384582520000e-001) (17, -4.97564226388931270000e-002) (18, -2.29582548141479490000e-001) (19, -8.30295532941818240000e-002) (20, -2.15418651700019840000e-001) (21, -1.08139425516128540000e-001) (22, -1.22662037611007690000e-001) (23, -3.60243678092956540000e-001) (24, 5.78228890895843510000e-001) (25, 9.57641974091529850000e-002) (26, 1.00642945617437360000e-002) (27, -1.52052566409111020000e-001) (28, -8.30540731549263000000e-002) (29, -3.40060412883758540000e-001) (30, -9.64623913168907170000e-002) (31, -1.73239335417747500000e-001) (32, -4.08797919750213620000e-001) (33, 3.63927125930786130000e-001) (34, 2.76043534278869630000e-001) (35, 1.06476712971925740000e-002) (36, -4.08146381378173830000e-001) (37, 2.01648361980915070000e-002) (38, -1.47722408175468440000e-001) (39, -3.01829308271408080000e-001) (40, -4.24565881490707400000e-001) (41, -1.75415098667144780000e-001) (42, 1.90963715314865110000e-001) (43, 2.09276407957077030000e-001) (44, -1.55948877334594730000e-001) (45, 6.60216435790061950000e-002) (46, -1.50249979924410580000e-003) (47, -1.47267967462539670000e-001) (48, -1.76840937137603760000e+000) (0, 8.99124294519424440000e-002) (1, 1.55460476875305180000e-001) (2, 1.94738209247589110000e-001) (3, -9.40487608313560490000e-002) (4, -1.39190465211868290000e-001) (5, -1.23575508594512940000e-001) (6, -2.41948992013931270000e-001) (7, -2.24631294608116150000e-001) (8, 1.35241895914077760000e-002) (9, 4.84418243169784550000e-001) (10, 3.05098772048950200000e-001) (11, 4.02978509664535520000e-002) (12, -4.89375859498977660000e-001) (13, -4.51314181089401250000e-001) (14, -1.88490465283393860000e-001) (15, -4.71149295568466190000e-001) (16, 5.97562074661254880000e-001) (17, 5.69513380527496340000e-001) (18, 1.38604387640953060000e-001) (19, 1.81190535426139830000e-001) (20, -3.34916383028030400000e-001) (21, 6.87400698661804200000e-002) (22, 1.31137832999229430000e-001) (23, 6.27471804618835450000e-001) (24, 5.98823964595794680000e-001) (25, 4.53707456588745120000e-001) (26, 7.08301424980163570000e-001) (27, 1.89115375280380250000e-001) (28, 2.95557249337434770000e-002) (29, 2.40791916847229000000e-001) (30, 7.83415913581848140000e-001) (31, 7.26879417896270750000e-001) (32, -3.82349431514739990000e-001) (33, 6.14004313945770260000e-001) (34, 8.43557417392730710000e-001) (35, 3.38692337274551390000e-001) (36, 1.16351982578635220000e-002) (37, 4.38557773828506470000e-001) (38, 3.55431377887725830000e-001) (39, 1.05980567634105680000e-001) (40, -3.49786937236785890000e-001) (41, 1.19339108467102050000e-001) (42, -1.77612807601690290000e-002) (43, 7.29038000106811520000e-001) (44, 4.82447773218154910000e-001) (45, 4.25359994173049930000e-001) (46, 1.64861038327217100000e-001) (47, 5.17227835953235630000e-002) (48, -1.80221521854400630000e+000) (0, -5.35018043592572210000e-003) (1, -1.34069910272955890000e-002) (2, -1.34248405694961550000e-001) (3, -2.11202055215835570000e-001) (4, -2.27202326059341430000e-001) (5, -2.13468596339225770000e-001) (6, -1.81727200746536250000e-001) (7, -3.17431658506393430000e-001) (8, 1.39396712183952330000e-001) (9, 1.05232469737529750000e-001) (10, -5.61998505145311360000e-003) (11, -1.25246092677116390000e-001) (12, -2.13264897465705870000e-001) (13, -2.40230500698089600000e-001) (14, -1.33847400546073910000e-001) (15, -2.96388715505599980000e-002) (16, 2.58212059736251830000e-001) (17, 1.28353700041770940000e-001) (18, -1.63288652896881100000e-001) (19, -1.11673241481184960000e-002) (20, -2.11750179529190060000e-001) (21, -1.52813032269477840000e-001) (22, 5.76987639069557190000e-002) (23, -1.70248776674270630000e-001) (24, 1.64976611733436580000e-001) (25, -1.21524624526500700000e-001) (26, 2.01739687472581860000e-002) (27, -2.00836852192878720000e-001) (28, 5.87360747158527370000e-002) (29, -2.03444853425025940000e-001) (30, -5.83728179335594180000e-002) (31, -4.10368926823139190000e-002) (32, -3.29449206590652470000e-001) (33, 5.20052239298820500000e-002) (34, -1.35379564017057420000e-002) (35, -7.92475044727325440000e-002) (36, -3.66990923881530760000e-001) (37, -4.73264977335929870000e-002) (38, -1.48964643478393550000e-001) (39, -8.83032307028770450000e-002) (40, -4.17143493890762330000e-001) (41, -1.71084031462669370000e-001) (42, -2.76506900787353520000e-001) (43, -2.14496508240699770000e-001) (44, -2.15553119778633120000e-001) (45, -1.63444966077804570000e-001) (46, -2.05719936639070510000e-003) (47, -1.18181139230728150000e-001) (48, -1.59530699253082280000e+000) (0, -4.13913428783416750000e-002) (1, -1.62624821066856380000e-001) (2, -1.38540983200073240000e-001) (3, 3.41793522238731380000e-002) (4, -2.07809031009674070000e-001) (5, -1.84345230460166930000e-001) (6, -2.56635453552007680000e-002) (7, -1.98344156146049500000e-001) (8, 4.75348755717277530000e-002) (9, -6.68438196182250980000e-001) (10, -2.92139500379562380000e-001) (11, -3.14736902713775630000e-001) (12, -8.98258537054061890000e-002) (13, 5.11540565639734270000e-003) (14, 3.17430555820465090000e-001) (15, -3.73604148626327510000e-002) (16, -4.27049428224563600000e-001) (17, -7.79402852058410640000e-001) (18, -3.48383814096450810000e-001) (19, -4.41381126642227170000e-001) (20, -4.03995007276535030000e-001) (21, -2.93182194232940670000e-001) (22, -2.73820608854293820000e-001) (23, 7.47410058975219730000e-002) (24, -6.12344920635223390000e-001) (25, -7.30408608913421630000e-001) (26, -5.57999610900878910000e-001) (27, -5.95510303974151610000e-001) (28, -3.25660943984985350000e-001) (29, -4.61387515068054200000e-001) (30, -2.95924305915832520000e-001) (31, -2.58343905210495000000e-001) (32, -2.32466399669647220000e-001) (33, -9.14614737033843990000e-001) (34, -7.61215746402740480000e-001) (35, -8.67162227630615230000e-001) (36, -5.72427451610565190000e-001) (37, -3.77681285142898560000e-001) (38, -4.58976775407791140000e-001) (39, -9.05650481581687930000e-002) (40, 9.34723392128944400000e-002) (41, -4.96602267026901250000e-001) (42, -1.89928323030471800000e-001) (43, -1.01257073879241940000e+000) (44, -6.08400225639343260000e-001) (45, -5.08145928382873540000e-001) (46, -2.36160248517990110000e-001) (47, -7.82873779535293580000e-002) (48, -8.67490768432617190000e-001) (0, -1.18128634989261630000e-001) (1, -6.18231780827045440000e-002) (2, -1.98040604591369630000e-001) (3, -9.40013006329536440000e-002) (4, -4.51824933290481570000e-001) (5, -2.24348410964012150000e-001) (6, -2.99353674054145810000e-002) (7, -4.85134124755859380000e-002) (8, 3.93223613500595090000e-002) (9, -3.57831597328186040000e-001) (10, -1.98824107646942140000e-001) (11, -2.89835542440414430000e-001) (12, -3.60899627208709720000e-001) (13, -8.57609584927558900000e-002) (14, 1.25461323186755180000e-002) (15, 1.26980975270271300000e-001) (16, -3.01678299903869630000e-001) (17, -4.19372260570526120000e-001) (18, -2.25267291069030760000e-001) (19, -4.79343980550765990000e-001) (20, -2.91378647089004520000e-001) (21, -4.39246565103530880000e-001) (22, -2.48645365238189700000e-001) (23, -5.08504569530487060000e-001) (24, -2.35804840922355650000e-001) (25, -3.53358715772628780000e-001) (26, -4.64213848114013670000e-001) (27, -4.97999966144561770000e-001) (28, -4.75416451692581180000e-001) (29, -3.81966978311538700000e-001) (30, -5.06213188171386720000e-001) (31, -5.44157207012176510000e-001) (32, 8.49909856915473940000e-002) (33, -5.19892275333404540000e-001) (34, -6.12218320369720460000e-001) (35, -8.05578649044036870000e-001) (36, -4.34035658836364750000e-001) (37, -3.81621718406677250000e-001) (38, -3.33263307809829710000e-001) (39, -1.85152497142553330000e-002) (40, 1.66052073240280150000e-001) (41, -2.11866050958633420000e-001) (42, -7.61899426579475400000e-002) (43, -9.86675560474395750000e-001) (44, -6.35180294513702390000e-001) (45, -3.32854509353637700000e-001) (46, -7.54521712660789490000e-002) (47, -9.22167375683784480000e-002) (48, -7.72915363311767580000e-001) (0, -2.99755623564124110000e-003) (1, -2.08894878625869750000e-001) (2, -1.77661135792732240000e-001) (3, -9.61202755570411680000e-002) (4, -1.86219215393066410000e-001) (5, -1.86210155487060550000e-001) (6, 7.15542398393154140000e-003) (7, 1.25985415652394290000e-002) (8, -1.05512037873268130000e-001) (9, -1.35551452636718750000e-001) (10, -5.07125891745090480000e-002) (11, -1.00383728742599490000e-001) (12, -2.81420767307281490000e-001) (13, -1.49388775229454040000e-001) (14, -7.71921686828136440000e-003) (15, 5.55597320199012760000e-002) (16, -1.61892965435981750000e-001) (17, -2.54363417625427250000e-001) (18, -6.90675154328346250000e-002) (19, -3.03846836090087890000e-001) (20, -2.56539016962051390000e-001) (21, -2.27996453642845150000e-001) (22, -8.87223333120346070000e-002) (23, -1.01560264825820920000e-001) (24, -2.34327480196952820000e-001) (25, -1.25292524695396420000e-001) (26, -2.38732591271400450000e-001) (27, -3.06201905012130740000e-001) (28, -1.93453297019004820000e-001) (29, -2.20202431082725520000e-001) (30, -1.80068120360374450000e-001) (31, -1.92698433995246890000e-001) (32, 9.38427373766899110000e-002) (33, -1.10548540949821470000e-001) (34, -1.88863664865493770000e-001) (35, -2.65997350215911870000e-001) (36, -3.06472063064575200000e-001) (37, -1.92565143108367920000e-001) (38, -1.21444575488567350000e-001) (39, -6.48775175213813780000e-002) (40, -3.73511090874671940000e-002) (41, -1.18947073817253110000e-001) (42, -9.60509255528450010000e-002) (43, -3.17482024431228640000e-001) (44, -2.49201789498329160000e-001) (45, -1.98870331048965450000e-001) (46, -1.61883458495140080000e-001) (47, -3.52118648588657380000e-002) (48, -1.43998050689697270000e+000) (0, 1.18368947878479960000e-002) (1, -1.62445083260536190000e-001) (2, -5.38888610899448390000e-002) (3, -2.79946625232696530000e-001) (4, -5.27872860431671140000e-001) (5, -1.40797853469848630000e-001) (6, -1.39251485466957090000e-001) (7, -2.37284511327743530000e-001) (8, 1.05731986463069920000e-001) (9, 1.89585223793983460000e-001) (10, 2.18662798404693600000e-001) (11, 2.26581230759620670000e-001) (12, -7.38686084747314450000e-001) (13, -5.75227916240692140000e-001) (14, -4.15188640356063840000e-001) (15, -6.50989711284637450000e-001) (16, 4.09743905067443850000e-001) (17, 4.15514349937438960000e-001) (18, 1.31698027253150940000e-001) (19, -6.13338649272918700000e-002) (20, -4.38937962055206300000e-001) (21, -9.75328981876373290000e-002) (22, -4.52989190816879270000e-002) (23, -1.92975759506225590000e-001) (24, 4.79683220386505130000e-001) (25, 5.14567255973815920000e-001) (26, 6.60324037075042720000e-001) (27, 4.09667015075683590000e-001) (28, 1.86248391866683960000e-001) (29, -1.15789666771888730000e-001) (30, 8.10905471444129940000e-002) (31, 3.37437897920608520000e-001) (32, -6.18195056915283200000e-001) (33, 3.04030954837799070000e-001) (34, 4.46376472711563110000e-001) (35, 4.80202496051788330000e-001) (36, 4.29401472210884090000e-002) (37, 8.01371932029724120000e-002) (38, 1.58213764429092410000e-001) (39, -2.25111082196235660000e-001) (40, -5.65383315086364750000e-001) (41, -7.87937045097351070000e-002) (42, 1.56042620539665220000e-001) (43, 2.60653436183929440000e-001) (44, 5.21454572677612300000e-001) (45, 6.55310511589050290000e-001) (46, 8.59204977750778200000e-002) (47, -2.03141257166862490000e-001) (48, -1.91783881187438960000e+000) (0, 2.10559740662574770000e-002) (1, -9.26199853420257570000e-002) (2, -9.72776338458061220000e-002) (3, -1.66529372334480290000e-001) (4, -1.30130752921104430000e-001) (5, -9.38097834587097170000e-002) (6, -2.16541036963462830000e-001) (7, -1.14918038249015810000e-001) (8, -9.91779267787933350000e-002) (9, -1.45098924636840820000e-001) (10, 2.46540363878011700000e-003) (11, -1.99317216873168950000e-001) (12, -1.35964348912239070000e-001) (13, -7.32154399156570430000e-002) (14, 7.40101619157940150000e-004) (15, -9.78258326649665830000e-002) (16, -8.04088041186332700000e-002) (17, -1.98605939745903020000e-001) (18, -8.42175707221031190000e-002) (19, -6.15701526403427120000e-002) (20, -9.51237455010414120000e-002) (21, -7.52723962068557740000e-002) (22, -1.84884786605834960000e-001) (23, -2.93675996363162990000e-002) (24, -3.10004241764545440000e-002) (25, -1.52396177873015400000e-002) (26, 4.46700165048241620000e-003) (27, -1.37878358364105220000e-001) (28, -1.87909454107284550000e-001) (29, -1.58543344587087630000e-002) (30, 4.12771552801132200000e-002) (31, 4.40497845411300660000e-002) (32, -2.98011745326220990000e-003) (33, -1.63760259747505190000e-001) (34, 9.67603549361228940000e-002) (35, -3.29039730131626130000e-002) (36, -2.08637535572052000000e-001) (37, -1.06648698449134830000e-001) (38, 1.21752977371215820000e-001) (39, -5.06916232407093050000e-002) (40, -1.20674967765808110000e-002) (41, -3.76598574221134190000e-002) (42, -1.96558460593223570000e-002) (43, -1.43389239907264710000e-001) (44, -1.54824912548065190000e-001) (45, -9.94174256920814510000e-002) (46, -5.27347624301910400000e-002) (47, -3.19616459310054780000e-002) (48, -1.61825335025787350000e+000) (0, 7.46598765254020690000e-002) (1, -4.10965718328952790000e-002) (2, 6.70578703284263610000e-003) (3, -1.86301156878471370000e-001) (4, -5.11962652206420900000e-001) (5, -4.74086552858352660000e-001) (6, -2.26862296462059020000e-001) (7, -3.49489212036132810000e-001) (8, 3.87683302164077760000e-001) (9, 1.76476523280143740000e-001) (10, 5.29741346836090090000e-001) (11, 4.48712766170501710000e-001) (12, -6.72355294227600100000e-001) (13, -7.44810998439788820000e-001) (14, -2.14145764708518980000e-001) (15, -3.86478036642074580000e-001) (16, 5.15178143978118900000e-001) (17, 3.07827651500701900000e-001) (18, -1.57198652625083920000e-001) (19, 2.86196857690811160000e-001) (20, 1.02346993982791900000e-001) (21, -1.41877263784408570000e-001) (22, -5.45941144227981570000e-002) (23, -2.33825489878654480000e-001) (24, 3.01698505878448490000e-001) (25, 1.44868388772010800000e-001) (26, 3.63648831844329830000e-001) (27, 4.77597475051879880000e-001) (28, 3.88631165027618410000e-001) (29, -2.08109661936759950000e-001) (30, -1.32484003901481630000e-001) (31, 2.01212227344512940000e-001) (32, -8.77552628517150880000e-001) (33, 3.44823390245437620000e-001) (34, 1.75150886178016660000e-001) (35, 2.31939151883125310000e-001) (36, 8.56704935431480410000e-002) (37, 2.89785861968994140000e-002) (38, 6.80340602993965150000e-002) (39, -2.56539344787597660000e-001) (40, -6.97377562522888180000e-001) (41, -1.33012667298316960000e-001) (42, 6.44316226243972780000e-002) (43, 1.62471696734428410000e-001) (44, 2.65761703252792360000e-001) (45, 5.46074151992797850000e-001) (46, 3.31495732069015500000e-001) (47, -4.77940700948238370000e-002) (48, -2.09025645256042480000e+000) (0, -1.40014246106147770000e-001) (1, -1.80783271789550780000e-001) (2, -1.60909712314605710000e-001) (3, -1.61293148994445800000e-001) (4, -1.81872740387916560000e-001) (5, -2.61096745729446410000e-001) (6, -3.95922623574733730000e-002) (7, -8.38168486952781680000e-002) (8, -1.59886360168457030000e-001) (9, -3.79919469356536870000e-001) (10, -7.24746063351631160000e-002) (11, -2.27368667721748350000e-001) (12, -3.06181281805038450000e-001) (13, -1.59647911787033080000e-001) (14, -8.39763954281806950000e-002) (15, -9.14986357092857360000e-002) (16, -2.10366860032081600000e-001) (17, -3.29986035823822020000e-001) (18, -1.71604439616203310000e-001) (19, -1.97390526533126830000e-001) (20, -2.15359255671501160000e-001) (21, -3.06747049093246460000e-001) (22, -1.47884562611579900000e-001) (23, -1.50309175252914430000e-001) (24, -3.65169763565063480000e-001) (25, -2.24012434482574460000e-001) (26, -3.94297719001770020000e-001) (27, -3.18309366703033450000e-001) (28, -2.87682175636291500000e-001) (29, -1.89654693007469180000e-001) (30, -9.34546366333961490000e-002) (31, 4.79131676256656650000e-002) (32, -1.24844796955585480000e-001) (33, -2.81176775693893430000e-001) (34, -3.87760043144226070000e-001) (35, -3.66933733224868770000e-001) (36, -2.46321186423301700000e-001) (37, -2.29798898100852970000e-001) (38, 5.04491254687309270000e-002) (39, -8.24362933635711670000e-002) (40, -2.90040522813797000000e-002) (41, -1.73663929104804990000e-001) (42, 1.64328441023826600000e-002) (43, -5.53162992000579830000e-001) (44, -2.63374537229537960000e-001) (45, -1.24294310808181760000e-001) (46, 5.87425157427787780000e-002) (47, -1.00409887731075290000e-001) (48, -1.40216791629791260000e+000) (0, 1.38354226946830750000e-001) (1, 7.76168107986450200000e-002) (2, -1.29502080380916600000e-002) (3, -7.31002464890480040000e-002) (4, -4.47564244270324710000e-001) (5, -2.04484373331069950000e-001) (6, -2.49412849545478820000e-001) (7, -2.15297430753707890000e-001) (8, 1.88497275114059450000e-001) (9, 6.04141876101493840000e-002) (10, -2.04565022140741350000e-002) (11, -9.23409461975097660000e-002) (12, -2.35498458147048950000e-001) (13, -1.58506155014038090000e-001) (14, -2.05017775297164920000e-001) (15, -3.20919007062911990000e-001) (16, 9.94911342859268190000e-002) (17, -6.13996647298336030000e-002) (18, -4.41534332931041720000e-002) (19, 6.23811222612857820000e-002) (20, -4.08993333578109740000e-001) (21, -1.28310456871986390000e-001) (22, -1.40272110700607300000e-001) (23, -1.71264380216598510000e-001) (24, -3.68915013968944550000e-002) (25, -1.23436912894248960000e-001) (26, 9.04180668294429780000e-003) (27, 1.15692585706710820000e-001) (28, 2.55022704601287840000e-001) (29, -1.95971399545669560000e-001) (30, 3.24365347623825070000e-002) (31, -1.86369374394416810000e-001) (32, -2.99649685621261600000e-001) (33, -1.82119339704513550000e-001) (34, -1.40775859355926510000e-001) (35, -1.98614254593849180000e-001) (36, -2.47065484523773190000e-001) (37, -2.62518227100372310000e-002) (38, -1.41123920679092410000e-001) (39, -4.90284077823162080000e-002) (40, -3.50945055484771730000e-001) (41, -3.16103518009185790000e-001) (42, -2.17675894498825070000e-001) (43, -1.42550736665725710000e-001) (44, -1.46667107939720150000e-001) (45, 9.23765748739242550000e-002) (46, 6.84928223490715030000e-002) (47, 1.16649881005287170000e-001) (48, -1.64497554302215580000e+000) (0, -1.99738238006830220000e-002) (1, 5.17239123582839970000e-002) (2, -3.23687493801116940000e-002) (3, 8.19554459303617480000e-003) (4, -2.42385923862457280000e-001) (5, 1.25518571585416790000e-002) (6, -1.99367597699165340000e-001) (7, 4.97730309143662450000e-003) (8, -7.75104239583015440000e-002) (9, -1.29495099186897280000e-001) (10, -1.49271279573440550000e-001) (11, -1.53204947710037230000e-001) (12, -1.42198145389556880000e-001) (13, -8.95744562149047850000e-002) (14, 1.05741590261459350000e-001) (15, -1.93259552121162410000e-001) (16, 5.75381703674793240000e-002) (17, -6.21132887899875640000e-002) (18, -1.28616988658905030000e-001) (19, -1.25431716442108150000e-001) (20, -2.07386896014213560000e-001) (21, -9.96260568499565120000e-002) (22, -4.94436770677566530000e-002) (23, 6.45477846264839170000e-002) (24, -1.45039588212966920000e-001) (25, -9.18158888816833500000e-002) (26, -1.44705474376678470000e-002) (27, -1.17254361510276790000e-001) (28, -2.28336319327354430000e-001) (29, -9.57470163702964780000e-002) (30, 1.41945764422416690000e-001) (31, 5.09506203234195710000e-002) (32, -1.85451403260231020000e-001) (33, -4.01369743049144740000e-002) (34, -4.51729260385036470000e-002) (35, -1.39642819762229920000e-001) (36, -2.27801114320755000000e-001) (37, 2.63451021164655690000e-002) (38, 7.44958370923995970000e-002) (39, -6.33338838815689090000e-002) (40, -6.14116899669170380000e-002) (41, -1.16622686386108400000e-001) (42, -1.36793479323387150000e-001) (43, -1.82232826948165890000e-001) (44, -1.67388439178466800000e-001) (45, -9.17860418558120730000e-002) (46, -1.57943665981292720000e-001) (47, 1.08176462352275850000e-001) (48, -1.62432360649108890000e+000) (0, -1.99295803904533390000e-001) (1, -8.69705229997634890000e-002) (2, -2.83181220293045040000e-001) (3, -2.37979456782341000000e-001) (4, -4.61556285619735720000e-001) (5, -1.00578658282756810000e-001) (6, -7.70162716507911680000e-002) (7, 1.21298871934413910000e-001) (8, -1.48540243506431580000e-001) (9, -3.65573048591613770000e-001) (10, -1.81578293442726140000e-001) (11, -2.36399486660957340000e-001) (12, -3.65907251834869380000e-001) (13, -1.13461047410964970000e-001) (14, -7.84577578306198120000e-002) (15, 2.14566990733146670000e-001) (16, -3.33179712295532230000e-001) (17, -2.40732267498970030000e-001) (18, -2.69605249166488650000e-001) (19, -4.12514805793762210000e-001) (20, -3.20892632007598880000e-001) (21, -3.81353855133056640000e-001) (22, -2.27344751358032230000e-001) (23, -4.02503907680511470000e-001) (24, -1.18480384349823000000e-001) (25, -2.17317253351211550000e-001) (26, -3.89255762100219730000e-001) (27, -3.74727576971054080000e-001) (28, -4.16092872619628910000e-001) (29, -3.77470195293426510000e-001) (30, -5.30346632003784180000e-001) (31, -5.49947142601013180000e-001) (32, 2.00809314846992490000e-001) (33, -4.24469798803329470000e-001) (34, -4.59451735019683840000e-001) (35, -5.83743155002593990000e-001) (36, -4.43915873765945430000e-001) (37, -3.85308653116226200000e-001) (38, -3.90369117259979250000e-001) (39, -1.14452071487903590000e-001) (40, 1.21942311525344850000e-001) (41, -7.45478123426437380000e-002) (42, -1.47317916154861450000e-001) (43, -7.28232681751251220000e-001) (44, -5.73973119258880620000e-001) (45, -2.92092323303222660000e-001) (46, -5.49181438982486720000e-002) (47, -1.02460265159606930000e-001) (48, -1.02948164939880370000e+000) (0, -1.74897342920303340000e-001) (1, -1.81907281279563900000e-001) (2, -2.36994773149490360000e-002) (3, -6.86589777469635010000e-002) (4, -1.43725663423538210000e-001) (5, -1.32425978779792790000e-001) (6, -1.87271863222122190000e-001) (7, -1.04386612772941590000e-001) (8, -1.62552595138549800000e-001) (9, -1.12847700715065000000e-001) (10, 5.20733781158924100000e-002) (11, 2.54228692501783370000e-002) (12, -2.87498533725738530000e-001) (13, -1.11027635633945470000e-001) (14, -2.90903478860855100000e-001) (15, 8.28194245696067810000e-002) (16, -2.73388624191284180000e-001) (17, -1.25103831291198730000e-001) (18, 2.60084699839353560000e-002) (19, -2.09452100098133090000e-002) (20, -1.09433211386203770000e-001) (21, -2.10919305682182310000e-001) (22, 1.19377771625295280000e-004) (23, -2.11483746767044070000e-001) (24, -9.39995124936103820000e-002) (25, -9.15298610925674440000e-002) (26, -1.06225721538066860000e-001) (27, -2.99462825059890750000e-001) (28, -3.15820753574371340000e-001) (29, -8.03752467036247250000e-002) (30, -1.77587404847145080000e-001) (31, -8.98560360074043270000e-002) (32, 8.69752839207649230000e-002) (33, -1.28712221980094910000e-001) (34, -1.17541894316673280000e-001) (35, -2.33146548271179200000e-001) (36, -3.21828842163085940000e-001) (37, -1.14221118390560150000e-001) (38, 2.13483534753322600000e-002) (39, -1.50475487112998960000e-001) (40, 1.50268584489822390000e-001) (41, 2.68340073525905610000e-002) (42, -9.00065079331398010000e-002) (43, -3.56579303741455080000e-001) (44, -3.15946310758590700000e-001) (45, -2.35071510076522830000e-001) (46, -9.59312841296195980000e-002) (47, -2.48507112264633180000e-001) (48, -1.49630117416381840000e+000) (0, -3.69136184453964230000e-002) (1, -1.62284895777702330000e-001) (2, -2.29086861014366150000e-001) (3, -2.47672140598297120000e-001) (4, -3.11755388975143430000e-001) (5, -7.70532116293907170000e-002) (6, -1.50450263172388080000e-002) (7, 1.16272764280438420000e-002) (8, 1.22109977528452870000e-002) (9, -2.08617195487022400000e-001) (10, -2.07271516323089600000e-001) (11, -1.58190205693244930000e-001) (12, -2.64913231134414670000e-001) (13, -1.56504303216934200000e-001) (14, 9.38701182603836060000e-002) (15, 9.44056659936904910000e-002) (16, -2.30161815881729130000e-001) (17, -1.97145521640777590000e-001) (18, -2.53608763217926030000e-001) (19, -3.39409202337265010000e-001) (20, -4.08803313970565800000e-001) (21, -3.75620663166046140000e-001) (22, -1.91132634878158570000e-001) (23, -3.30220162868499760000e-001) (24, -1.04534231126308440000e-001) (25, -2.77324020862579350000e-001) (26, -2.42032676935195920000e-001) (27, -2.90242433547973630000e-001) (28, -4.20684039592742920000e-001) (29, -4.04980868101120000000e-001) (30, -3.38056981563568120000e-001) (31, -3.95970195531845090000e-001) (32, 3.23132202029228210000e-002) (33, -3.78007799386978150000e-001) (34, -3.50675970315933230000e-001) (35, -3.86364877223968510000e-001) (36, -3.42155516147613530000e-001) (37, -2.81493663787841800000e-001) (38, -4.35929298400878910000e-001) (39, -1.35101422667503360000e-001) (40, 6.82936534285545350000e-002) (41, -1.84785455465316770000e-001) (42, -1.61060586571693420000e-001) (43, -4.20771747827529910000e-001) (44, -3.98672372102737430000e-001) (45, -2.31680616736412050000e-001) (46, -1.62431910634040830000e-001) (47, -1.82898789644241330000e-001) (48, -1.23744261264801030000e+000) (0, 1.22447460889816280000e-001) (1, -5.35285025835037230000e-002) (2, -7.22971186041831970000e-003) (3, -4.02991920709609990000e-002) (4, -1.99965059757232670000e-001) (5, 3.97923067212104800000e-002) (6, -1.22107192873954770000e-001) (7, -8.97574946284294130000e-002) (8, 8.90955924987792970000e-002) (9, 4.71881590783596040000e-003) (10, 9.29108262062072750000e-002) (11, -8.88558775186538700000e-002) (12, -2.03705251216888430000e-001) (13, 1.64788533002138140000e-002) (14, 3.75319719314575200000e-002) (15, -4.24751192331314090000e-001) (16, 1.78972840309143070000e-001) (17, 3.67199555039405820000e-002) (18, 7.48107135295867920000e-002) (19, -3.50051335990428920000e-002) (20, -3.25105339288711550000e-001) (21, -1.44959717988967900000e-001) (22, -1.19430109858512880000e-001) (23, 2.30970293283462520000e-001) (24, 1.32603541016578670000e-001) (25, 1.66938662528991700000e-001) (26, 1.87481436878442760000e-002) (27, -2.93830074369907380000e-002) (28, -1.67232125997543330000e-001) (29, 8.98410901427268980000e-002) (30, 3.09104472398757930000e-001) (31, 1.82206794619560240000e-001) (32, -1.85837354511022570000e-002) (33, 6.58039227128028870000e-002) (34, 1.64027392864227290000e-001) (35, 5.13330399990081790000e-002) (36, -1.82139500975608830000e-001) (37, 2.92879417538642880000e-002) (38, 1.50243923068046570000e-001) (39, 1.14847525954246520000e-001) (40, -6.36569038033485410000e-002) (41, -2.55227554589509960000e-002) (42, -9.85819026827812190000e-002) (43, 5.62622994184494020000e-002) (44, 3.21637578308582310000e-002) (45, 5.13368993997573850000e-002) (46, -4.96424436569213870000e-002) (47, 1.00166507065296170000e-001) (48, -1.68169808387756350000e+000) (0, -1.53448417782783510000e-001) (1, -2.05477803945541380000e-001) (2, -1.43979057669639590000e-001) (3, -1.01591825485229490000e-001) (4, -3.87502342462539670000e-001) (5, -3.86055290699005130000e-001) (6, -1.32937118411064150000e-001) (7, 1.23850330710411070000e-002) (8, -4.02223616838455200000e-002) (9, -4.49321836233139040000e-001) (10, -2.98209697008132930000e-001) (11, -1.73538863658905030000e-001) (12, -4.37781542539596560000e-001) (13, -1.04984946548938750000e-001) (14, 2.43392912670969960000e-003) (15, 5.59070035815238950000e-002) (16, -3.43989878892898560000e-001) (17, -5.49923717975616460000e-001) (18, -3.48010987043380740000e-001) (19, -2.88771867752075200000e-001) (20, -3.84643644094467160000e-001) (21, -3.16088736057281490000e-001) (22, -2.11412370204925540000e-001) (23, -3.32956969738006590000e-001) (24, -4.50772583484649660000e-001) (25, -4.53331321477890010000e-001) (26, -5.40477275848388670000e-001) (27, -5.30322790145874020000e-001) (28, -3.00461798906326290000e-001) (29, -4.80149298906326290000e-001) (30, -5.19199013710021970000e-001) (31, -2.29426905512809750000e-001) (32, -6.57774060964584350000e-002) (33, -6.31394326686859130000e-001) (34, -5.36692440509796140000e-001) (35, -6.96977138519287110000e-001) (36, -4.63934332132339480000e-001) (37, -4.47417765855789180000e-001) (38, -2.05407530069351200000e-001) (39, -1.35375797748565670000e-001) (40, 8.88574495911598210000e-002) (41, -2.16408967971801760000e-001) (42, -6.68243691325187680000e-002) (43, -1.08991885185241700000e+000) (44, -4.82124835252761840000e-001) (45, -2.36908406019210820000e-001) (46, 5.49548827111721040000e-002) (47, 5.61685338616371150000e-002) (48, -8.78050386905670170000e-001) (0, 5.89982978999614720000e-002) (1, -5.11470027267932890000e-002) (2, -1.24093890190124510000e-001) (3, 5.50145246088504790000e-002) (4, -2.23757386207580570000e-001) (5, -1.42063915729522710000e-001) (6, -1.59808099269866940000e-001) (7, -1.91324010491371150000e-001) (8, 2.22709942609071730000e-002) (9, -1.46736010909080510000e-001) (10, -1.87069162726402280000e-001) (11, -3.09565871953964230000e-001) (12, -1.56686699483543630000e-004) (13, 7.40328282117843630000e-002) (14, 5.75276091694831850000e-002) (15, -1.16014644503593440000e-001) (16, -1.76911100745201110000e-001) (17, -2.62626409530639650000e-001) (18, -8.53278860449790950000e-002) (19, -3.24923455715179440000e-001) (20, -3.69657814502716060000e-001) (21, -2.23375841975212100000e-001) (22, -1.11382298171520230000e-001) (23, -9.98189672827720640000e-002) (24, -3.16275894641876220000e-001) (25, -3.24633240699768070000e-001) (26, -1.75559595227241520000e-001) (27, -2.59213089942932130000e-001) (28, -1.21803618967533110000e-001) (29, -3.49412947893142700000e-001) (30, -6.49224221706390380000e-002) (31, -1.92237615585327150000e-001) (32, -8.46982970833778380000e-002) (33, -4.45845872163772580000e-001) (34, -2.27692201733589170000e-001) (35, -3.29798579216003420000e-001) (36, -4.22782391309738160000e-001) (37, -1.07723265886306760000e-001) (38, -1.52288571000099180000e-001) (39, -2.44633350521326070000e-002) (40, -2.78262440115213390000e-002) (41, -2.65813589096069340000e-001) (42, -2.60595977306365970000e-001) (43, -3.57000172138214110000e-001) (44, -2.45739400386810300000e-001) (45, -2.69599378108978270000e-001) (46, -9.59419459104537960000e-002) (47, 4.84423860907554630000e-002) (48, -1.47360110282897950000e+000) (0, -1.96871772408485410000e-001) (1, -1.68514773249626160000e-001) (2, -1.35074526071548460000e-001) (3, -1.93596929311752320000e-002) (4, -3.49734067916870120000e-001) (5, -2.37399503588676450000e-001) (6, -1.50164440274238590000e-001) (7, 1.57106369733810420000e-001) (8, -3.71173232793807980000e-001) (9, -3.06222915649414060000e-001) (10, -1.37616783380508420000e-001) (11, 4.62171398103237150000e-002) (12, -4.33633714914321900000e-001) (13, -2.04714611172676090000e-001) (14, 8.78889337182044980000e-002) (15, 1.86985820531845090000e-001) (16, -4.12200152873992920000e-001) (17, -3.28818142414093020000e-001) (18, -7.68237095326185230000e-003) (19, 5.81535585224628450000e-002) (20, -1.16980679333209990000e-001) (21, -8.71670469641685490000e-002) (22, 2.52719819545745850000e-001) (23, -5.33191710710525510000e-002) (24, -3.15250694751739500000e-001) (25, -1.30924150347709660000e-001) (26, -2.24642857909202580000e-001) (27, -2.17742785811424260000e-001) (28, -4.19682115316390990000e-001) (29, 4.50477935373783110000e-002) (30, 1.93720087409019470000e-001) (31, 1.87716439366340640000e-001) (32, 2.92130131274461750000e-002) (33, -1.26421570777893070000e-001) (34, -1.08449012041091920000e-001) (35, 3.84599994868040080000e-003) (36, -2.66806334257125850000e-001) (37, 1.65168911218643190000e-001) (38, 2.70353645086288450000e-001) (39, -9.08530056476593020000e-002) (40, 1.29507824778556820000e-001) (41, 1.27045623958110810000e-003) (42, 1.68960973620414730000e-001) (43, -1.76954567432403560000e-001) (44, -3.19518864154815670000e-001) (45, 1.16234712302684780000e-001) (46, -7.84570947289466860000e-002) (47, -9.42368656396865840000e-002) (48, -1.72345709800720210000e+000) (0, -1.08507707715034480000e-001) (1, -3.31043591722846030000e-003) (2, 1.29634201526641850000e-001) (3, -2.21035927534103390000e-002) (4, 1.03493653237819670000e-001) (5, 1.08121424913406370000e-001) (6, -1.74437999725341800000e-001) (7, -1.70909389853477480000e-001) (8, -3.17664265632629390000e-001) (9, 8.42755883932113650000e-002) (10, 2.00789988040924070000e-001) (11, -1.32736414670944210000e-001) (12, -3.09878010302782060000e-002) (13, -1.43912181258201600000e-001) (14, -3.20774406194686890000e-001) (15, -1.01254478096961980000e-001) (16, 4.25359979271888730000e-002) (17, 1.68934717774391170000e-001) (18, 9.66805219650268550000e-002) (19, 1.99755772948265080000e-001) (20, 8.01956579089164730000e-002) (21, 1.21241919696331020000e-001) (22, 1.20892815291881560000e-001) (23, 8.51222947239875790000e-002) (24, 1.23223125934600830000e-001) (25, 9.06262025237083440000e-002) (26, 2.19472914934158330000e-001) (27, -4.87874448299407960000e-002) (28, -8.95577594637870790000e-002) (29, 1.48707017302513120000e-001) (30, 2.44362086057662960000e-001) (31, 1.01346820592880250000e-001) (32, 8.99647548794746400000e-002) (33, 4.10534083843231200000e-001) (34, 2.02192112803459170000e-001) (35, 9.50148478150367740000e-002) (36, -1.18522189557552340000e-001) (37, 2.17761471867561340000e-001) (38, 2.37899288535118100000e-001) (39, -1.63021013140678410000e-001) (40, 5.89013807475566860000e-002) (41, 1.93263933062553410000e-001) (42, -4.15793694555759430000e-002) (43, 2.29761138558387760000e-001) (44, -1.18060715496540070000e-001) (45, -8.17280411720275880000e-002) (46, -1.94959223270416260000e-001) (47, -1.61407187581062320000e-001) (48, -1.67514026165008540000e+000) (0, -1.91803246736526490000e-001) (1, -6.78878277540206910000e-002) (2, 2.21656158566474910000e-001) (3, -8.60003083944320680000e-002) (4, 2.26827487349510190000e-001) (5, -8.55585038661956790000e-002) (6, -4.31694388389587400000e-001) (7, -2.35029518604278560000e-001) (8, -2.78898030519485470000e-001) (9, 3.87486964464187620000e-001) (10, 3.53449046611785890000e-001) (11, 8.76046270132064820000e-002) (12, 1.46129831671714780000e-001) (13, -5.20123183727264400000e-001) (14, -5.18894791603088380000e-001) (15, -6.87739402055740360000e-002) (16, 1.78159654140472410000e-001) (17, 4.10054683685302730000e-001) (18, 1.39318510890007020000e-001) (19, 2.22631603479385380000e-001) (20, 1.81675463914871220000e-001) (21, 3.94202060997486110000e-002) (22, 5.12804090976715090000e-001) (23, 3.75574946403503420000e-001) (24, 3.67550075054168700000e-001) (25, -9.32996198534965520000e-002) (26, 2.82407850027084350000e-001) (27, -1.35095089673995970000e-001) (28, -1.58810794353485110000e-001) (29, -6.66247382760047910000e-002) (30, 3.42220425605773930000e-001) (31, 3.75196635723114010000e-001) (32, -5.83184100687503810000e-002) (33, 3.14136087894439700000e-001) (34, 2.37076386809349060000e-001) (35, -1.88369929790496830000e-001) (36, 3.75030236318707470000e-003) (37, 3.45066823065280910000e-002) (38, 4.62206453084945680000e-001) (39, -1.55389890074729920000e-001) (40, -1.12059399485588070000e-001) (41, 1.74355506896972660000e-002) (42, -3.89501303434371950000e-001) (43, 1.21624611318111420000e-001) (44, -1.37312198057770730000e-002) (45, -4.16134983301162720000e-001) (46, -8.44378676265478130000e-003) (47, -1.51898741722106930000e-001) (48, -1.57265448570251460000e+000) (0, -1.19794651865959170000e-001) (1, -1.28172978758811950000e-001) (2, -2.73842930793762210000e-001) (3, -2.18868672847747800000e-001) (4, -3.87956976890563960000e-001) (5, -6.85216933488845830000e-002) (6, -2.01977547258138660000e-002) (7, 5.38878776133060460000e-002) (8, -6.65714442729949950000e-002) (9, -1.94703683257102970000e-001) (10, -2.48576432466506960000e-001) (11, -1.50358960032463070000e-001) (12, -3.65310549736022950000e-001) (13, -2.31573894619941710000e-001) (14, -1.55435770750045780000e-001) (15, 5.35317882895469670000e-002) (16, -1.89806461334228520000e-001) (17, -2.41033822298049930000e-001) (18, -1.91646337509155270000e-001) (19, -3.69637101888656620000e-001) (20, -4.31868016719818120000e-001) (21, -3.65929007530212400000e-001) (22, -2.20755785703659060000e-001) (23, -4.18700098991394040000e-001) (24, -1.21659776195883750000e-002) (25, -1.53945609927177430000e-001) (26, -2.99753487110137940000e-001) (27, -2.87378758192062380000e-001) (28, -3.41042071580886840000e-001) (29, -3.53074222803115840000e-001) (30, -3.89140188694000240000e-001) (31, -4.01971548795700070000e-001) (32, 1.25794336199760440000e-001) (33, -2.72298157215118410000e-001) (34, -2.59625822305679320000e-001) (35, -3.52826327085495000000e-001) (36, -4.10549372434616090000e-001) (37, -4.11729037761688230000e-001) (38, -4.01856571435928340000e-001) (39, -2.19397366046905520000e-001) (40, -2.00762841850519180000e-002) (41, -1.80151864886283870000e-001) (42, -9.75342616438865660000e-002) (43, -5.38779854774475100000e-001) (44, -5.00581920146942140000e-001) (45, -1.88198223710060120000e-001) (46, -3.97054962813854220000e-002) (47, -9.82224196195602420000e-002) (48, -1.22500634193420410000e+000) (0, -3.32803763449192050000e-002) (1, -2.14446242898702620000e-003) (2, -5.31494170427322390000e-002) (3, 5.85612058639526370000e-002) (4, 